Geohash,vec
9q5c4,0.8254249999999957 -0.49801499999999854 0.42726999999998766 -0.7002600000000477 0.5346949999999732 0.7751250000000366 0.3926699999999829 0.7845099999999958 -0.0068800000000001004 0.49641500000003824 -0.025141499999999886 -0.975105000000103 -0.3651500000000393 -0.41965000000000413 -0.06902050000000443 -0.9241699999999636 0.5809399999999606 0.6922500000000359 -0.3866299999999783 0.060771499999992325 0.21027949999999473 0.1774799999999748 -0.7321600000000151 0.35620999999996583 0.430954999999994 -0.28737999999998803 0.3612149999999562 -1.1248999999998697 -0.01011849999999912 0.030046499999997964 -0.054544500000000905 0.12223050000000056 0.21611499999996897 0.8219600000001175 -0.273580000000023 -0.1714050000000202 0.4694249999999491 -0.43350000000004946 0.47557999999997347 0.29530500000003207 0.11964049999998871 -0.4926599999999289 -0.9341999999999737 -0.5584749999999554 0.9278649999999887 -0.2940599999999624 -0.5101850000000542 -0.8137750000000077 -0.01796000000000134 -0.003433499999999885 -0.1972379999999899 -0.33448999999997225 -0.4106549999999805 -0.4951399999999927 0.25617000000003076 -2.545749999999801 -0.2960299999999777 0.278800000000029 1.5438500000000195 0.8284999999999992 -1.326600000000125 0.8626250000000402 -0.04639700000000627 -1.1350700000000475 -0.2560149999999953 -0.7377400000000172 0.3881699999999739 0.1310200000000049 -0.40204999999998153 1.2569000000001025 -0.1892834999999943 0.771525000000084 -1.005865000000066 0.03469899999999784 0.22406999999998772 -0.6404400000000291 0.3676149999999463 -0.09343699999999526 -0.9315550000000503 -0.03809899999999635 -0.00791499999999942 0.4741399999999719 -0.42515499999995027 -0.25624999999998466 -0.6693599999999634 0.019588999999999388 -0.3930649999999996 0.47350000000002557 -0.4313649999999591 0.023128499999999063 0.19089250000001273 -0.7723900000000616 0.22729000000002073 -0.13696700000001755 -0.5800100000000212 0.7660749999999759 -0.6468700000000293 0.029445999999998997 0.49400500000001357 -0.2179849999999988
9q5fh,0.8254249999999957 -0.49801499999996346 0.4272699999999829 -0.7002600000000322 0.5346950000000401 0.7751249999999842 0.39266999999997343 0.7845099999999651 -0.006879999999999853 0.49641500000001737 -0.025141499999999716 -0.9751049999999868 -0.36515000000000913 -0.4196500000000276 -0.0690204999999954 -0.924169999999924 0.5809400000000404 0.6922500000000211 -0.38662999999998493 0.06077149999999577 0.21027949999999407 0.17747999999999384 -0.7321600000000189 0.35620999999999664 0.43095500000002385 -0.28737999999999025 0.36121499999999196 -1.1248999999999172 -0.010118500000000348 0.030046499999998325 -0.05454449999999904 0.12223050000000056 0.2161149999999846 0.8219600000000518 -0.27358000000001315 -0.17140500000000075 0.46942500000000104 -0.43350000000001976 0.475580000000022 0.29530499999999027 0.11964050000000244 -0.49265999999995636 -0.9342000000000297 -0.5584750000000297 0.9278650000000739 -0.29405999999997395 -0.5101850000000292 -0.8137750000000442 -0.017960000000000774 -0.0034334999999998963 -0.19723800000000277 -0.3344899999999804 -0.41065499999998506 -0.49513999999999303 0.25616999999999746 -2.5457500000001207 -0.29602999999998053 0.2788000000000175 1.543850000000019 0.8285000000000433 -1.3265999999999925 0.862625000000051 -0.046397000000001756 -1.1350699999999283 -0.2560150000000159 -0.7377400000000219 0.38816999999996743 0.13101999999999342 -0.4020499999999863 1.256899999999963 -0.18928349999999042 0.7715250000000663 -1.0058650000000533 0.03469900000000241 0.2240699999999906 -0.6404399999999653 0.3676149999999799 -0.09343699999999579 -0.9315550000000067 -0.03809900000000163 -0.00791500000000035 0.47414000000002016 -0.4251549999999806 -0.2562500000000149 -0.6693600000000252 0.019589000000001418 -0.39306499999998384 0.47350000000000414 -0.4313649999999885 0.023128499999998896 0.19089250000000918 -0.7723900000000452 0.22729000000000868 -0.1369670000000114 -0.5800099999999581 0.7660750000000006 -0.6468700000000253 0.029445999999997505 0.4940050000000123 -0.2179849999999988
9qh1b,0.8254249999999957 -0.49801500000001037 0.4272700000000016 -0.700260000000021 0.5346949999999595 0.7751250000000443 0.3926700000000016 0.784510000000035 -0.006880000000000322 0.49641500000004124 -0.0251414999999989 -0.9751050000001349 -0.36515000000004366 -0.41964999999998664 -0.06902050000000608 -0.924169999999989 0.580939999999948 0.692250000000038 -0.3866299999999774 0.06077149999999183 0.21027950000000184 0.17747999999998076 -0.7321599999999727 0.35620999999996145 0.4309549999999768 -0.2873799999999877 0.36121499999995105 -1.124899999999863 -0.010118499999998943 0.030046499999997915 -0.05454450000000271 0.12223050000000056 0.21611499999996672 0.821960000000127 -0.27358000000002447 -0.171405000000023 0.4694249999999325 -0.43350000000005373 0.47557999999995787 0.2953050000000384 0.11964049999998466 -0.49265999999992494 -0.934199999999947 -0.5584749999999423 0.9278649999999572 -0.29405999999996074 -0.5101850000000578 -0.8137749999999712 -0.01796000000000142 -0.0034334999999998833 -0.19723799999998803 -0.3344899999999756 -0.410654999999995 -0.49513999999999264 0.25617000000003837 -2.5457499999997553 -0.2960299999999773 0.2788000000000307 1.5438500000000195 0.8284999999999635 -1.3266000000001439 0.862625000000013 -0.04639700000000692 -1.1350700000000686 -0.25601499999998945 -0.7377399999999753 0.3881699999999928 0.13102000000000777 -0.402049999999997 1.2569000000001225 -0.18928350000000446 0.7715250000000864 -1.0058650000000677 0.034698999999997024 0.2240699999999873 -0.6404400000000383 0.3676149999999622 -0.09343699999999519 -0.9315550000000565 -0.038098999999995595 -0.007914999999999192 0.47413999999995626 -0.4251549999999459 -0.2562499999999775 -0.6693599999999545 0.019588999999999097 -0.3930650000000192 0.4735000000000287 -0.4313649999999548 0.02312850000000036 0.19089250000001323 -0.772390000000064 0.22729000000002247 -0.13696700000001844 -0.5800100000000314 0.7660749999999351 -0.6468700000000298 0.029445999999999774 0.49400500000001374 -0.2179849999999988
9q5dt,0.8254249999999964 -0.49801500000000404 0.4272699999999949 -0.7002600000000001 0.5346949999999994 0.7751250000000024 0.3926700000000029 0.7845100000000076 -0.006880000000000102 0.4964150000000065 -0.025141500000000126 -0.9751049999999953 -0.3651499999999999 -0.4196499999999965 -0.06902050000000044 -0.9241700000000029 0.5809399999999983 0.6922500000000013 -0.38662999999999725 0.06077150000000061 0.21027949999999884 0.17748000000000164 -0.7321600000000047 0.3562100000000025 0.43095500000000425 -0.28738000000000163 0.36121499999999623 -1.1249000000000136 -0.010118499999999938 0.03004649999999967 -0.05454449999999955 0.12223050000000048 0.2161150000000013 0.8219599999999934 -0.27358 -0.17140499999999775 0.469425000000001 -0.4335000000000032 0.47558000000000206 0.29530500000000215 0.11964050000000107 -0.49266000000000065 -0.9341999999999893 -0.5584749999999931 0.9278649999999973 -0.29406000000000154 -0.510185000000003 -0.8137750000000077 -0.01796000000000024 -0.0034335000000000337 -0.19723799999999891 -0.33448999999999757 -0.4106549999999975 -0.49513999999999725 0.2561699999999981 -2.5457499999999986 -0.29603000000000157 0.2787999999999994 1.5438500000000133 0.8285000000000066 -1.3265999999999925 0.8626249999999924 -0.046396999999999765 -1.1350700000000036 -0.2560150000000011 -0.7377399999999916 0.3881700000000019 0.13102000000000033 -0.4020500000000022 1.256899999999984 -0.1892835000000011 0.7715249999999972 -1.005864999999985 0.03469899999999984 0.2240699999999983 -0.6404400000000072 0.36761500000000064 -0.093437000000001 -0.9315550000000028 -0.03809900000000003 -0.007915000000000005 0.4741400000000035 -0.42515499999999584 -0.25624999999999737 -0.6693599999999984 0.01958899999999989 -0.393065000000005 0.47350000000000125 -0.4313649999999996 0.023128500000000215 0.1908925000000006 -0.7723899999999901 0.22728999999999736 -0.13696699999999887 -0.5800099999999984 0.7660750000000006 -0.6468699999999977 0.029446000000000076 0.49400499999999536 -0.21798499999999896
9q5cb,0.8254249999999957 -0.49801500000003074 0.42727000000002574 -0.7002599999999478 0.5346949999999359 0.7751250000000572 0.3926700000000339 0.7845100000001027 -0.006880000000000705 0.49641500000004646 -0.025141499999997197 -0.9751050000001901 -0.36515000000005116 -0.4196499999999564 -0.06902050000000738 -0.9241700000000328 0.5809399999999263 0.6922500000000417 -0.3866299999999757 0.06077149999999098 0.2102795000000141 0.17747999999999503 -0.7321599999998992 0.3562099999999538 0.4309549999999471 -0.2873800000000021 0.36121499999994217 -1.1248999999998923 -0.01011849999999985 0.030046499999997825 -0.05454450000000583 0.12223050000000056 0.21611499999996284 0.8219600000001434 -0.2735800000000269 -0.17140500000002787 0.4694249999999038 -0.4335000000000611 0.47557999999993095 0.2953050000000493 0.11964049999997764 -0.4926599999999181 -0.9341999999999008 -0.5584749999999196 0.9278649999999027 -0.2940599999999776 -0.5101850000000641 -0.8137749999999082 -0.017960000000000628 -0.0034334999999998802 -0.19723799999998481 -0.3344900000000139 -0.41065500000002003 -0.4951399999999926 0.2561700000000515 -2.5457499999999595 -0.2960299999999766 0.2788000000000336 1.5438500000000197 0.8284999999999016 -1.326600000000177 0.8626249999999658 -0.046397000000008036 -1.1350700000001048 -0.2560149999999794 -0.737739999999903 0.3881700000000254 0.1310200000000127 -0.4020500000000238 1.2569000000001571 -0.189283500000022 0.7715250000000908 -1.005865000000071 0.0346989999999956 0.22406999999998659 -0.6404400000000541 0.36761499999998976 -0.09343699999999505 -0.9315550000000674 -0.03809899999999428 -0.007914999999998796 0.4741399999999292 -0.42515499999993833 -0.2562499999999651 -0.6693599999999391 0.01958899999999859 -0.393065000000053 0.473500000000034 -0.4313649999999475 0.023128500000002605 0.19089250000001412 -0.7723900000000681 0.22729000000002547 -0.13696700000001774 -0.5800100000000155 0.7660749999998647 -0.6468699999999536 0.029446000000001114 0.49400500000001407 -0.2179849999999988
9q5c3,0.8254249999999957 -0.49801500000005045 0.42727000000004906 -0.700259999999877 0.5346950000000086 0.7751250000000699 0.3926700000000652 0.7845100000001684 -0.006880000000000784 0.4964149999999835 -0.02514149999999555 -0.9751050000001217 -0.36515000000005843 -0.41964999999992714 -0.06902049999999833 -0.9241700000000751 0.5809399999999052 0.6922500000000452 -0.38662999999997416 0.060771499999990146 0.210279500000026 0.17748000000000883 -0.7321599999998282 0.35620999999994635 0.4309549999999183 -0.287380000000047 0.36121499999993356 -1.1249000000000666 -0.010118500000000814 0.030046500000001197 -0.05454450000000886 0.12223049999998505 0.2161149999999643 0.8219600000001592 -0.2735800000000293 -0.17140500000003253 0.4694249999999217 -0.4335000000000682 0.47557999999995587 0.29530500000005977 0.11964049999998425 -0.49265999999991145 -0.9341999999998561 -0.5584749999998976 0.9278649999998501 -0.29406000000001925 -0.51018500000007 -0.8137749999998473 -0.017959999999997926 -0.0034334999999998776 -0.1972379999999817 -0.3344900000000509 -0.4106550000000443 -0.49513999999999253 0.2561700000000642 -2.545750000000211 -0.2960299999999759 0.27880000000003635 1.5438500000000197 0.8284999999998418 -1.3266000000002087 0.8626249999999203 -0.046397000000009125 -1.13507000000014 -0.2560149999999697 -0.7377399999998331 0.3881700000000569 0.13102000000001746 -0.40205000000004965 1.2569000000001909 -0.18928350000003896 0.771525000000095 -1.005864999999928 0.03469899999999422 0.22406999999999902 -0.6404400000000695 0.3676150000000164 -0.09343699999999493 -0.9315549999999928 -0.03809899999999301 -0.007914999999998415 0.4741399999999528 -0.42515499999993106 -0.2562499999999532 -0.6693599999999242 0.0195889999999981 -0.3930650000000857 0.47350000000003917 -0.43136499999995004 0.023128500000004777 0.19089250000001498 -0.7723900000000721 0.22729000000001218 -0.1369669999999954 -0.5800099999999425 0.7660749999997966 -0.6468699999998738 0.029446000000002415 0.4940049999999483 -0.21798500000000595
9q5ch,0.8254249999999957 -0.4980150000000163 0.42727000000000864 -0.7002599999999997 0.5346949999999525 0.775125000000048 0.392670000000011 0.7845100000000548 -0.0068800000000004335 0.49641500000004274 -0.025141499999998405 -0.975105000000151 -0.3651500000000458 -0.4196499999999778 -0.06902050000000691 -0.9241700000000017 0.5809399999999417 0.692250000000039 -0.3866299999999769 0.06077149999999158 0.21027950000000542 0.1774799999999849 -0.7321599999999513 0.3562099999999592 0.4309549999999681 -0.28737999999998753 0.36121499999994844 -1.1248999999998595 -0.010118499999999144 0.030046499999997887 -0.05454450000000362 0.12223050000000056 0.21611499999996558 0.8219600000001318 -0.2735800000000252 -0.17140500000002443 0.4694249999999241 -0.4335000000000559 0.47557999999995 0.29530500000004156 0.11964049999998261 -0.49265999999992294 -0.9341999999999335 -0.5584749999999357 0.9278649999999413 -0.2940599999999599 -0.5101850000000596 -0.8137749999999528 -0.01796000000000146 -0.0034334999999998824 -0.1972379999999871 -0.33448999999998674 -0.41065500000000227 -0.49513999999999264 0.2561700000000422 -2.5457499999997757 -0.2960299999999771 0.2788000000000315 1.5438500000000195 0.8284999999999455 -1.3266000000001537 0.8626249999999992 -0.046397000000007245 -1.135070000000079 -0.2560149999999865 -0.7377399999999542 0.3881700000000023 0.1310200000000092 -0.4020500000000048 1.2569000000001325 -0.18928350000000957 0.7715250000000877 -1.0058650000000686 0.03469899999999661 0.22406999999998709 -0.6404400000000429 0.36761499999997027 -0.09343699999999515 -0.9315550000000598 -0.03809899999999521 -0.007914999999999076 0.4741399999999484 -0.4251549999999437 -0.2562499999999739 -0.66935999999995 0.01958899999999895 -0.39306500000002903 0.47350000000003023 -0.4313649999999527 0.023128500000001016 0.1908925000000135 -0.7723900000000652 0.22729000000002336 -0.1369670000000189 -0.5800100000000367 0.7660749999999146 -0.6468700000000119 0.029446000000000163 0.49400500000001385 -0.2179849999999988
9q5ck,0.8254250000000526 -0.49801500000005655 0.42727000000005627 -0.7002599999998551 0.5346950000000316 0.7751250000000738 0.39267000000007474 0.7845100000001761 -0.006880000000000328 0.4964149999999527 -0.025141499999996132 -0.9751050000000722 -0.36515000000006065 -0.4196499999999182 -0.06902049999999556 -0.9241700000000881 0.5809399999998988 0.6922500000000462 -0.38662999999997366 0.06077149999998989 0.21027950000002965 0.17748000000001307 -0.7321599999998064 0.35620999999994407 0.4309549999999095 -0.2873800000000608 0.3612149999999309 -1.1249000000001201 -0.010118500000001111 0.03004650000000326 -0.05454450000000979 0.12223049999997683 0.21611499999998174 0.8219600000001108 -0.2735800000000301 -0.17140500000003397 0.46942499999994736 -0.43350000000007044 0.47557999999998163 0.29530500000006304 0.11964049999999055 -0.4926599999999094 -0.9341999999998424 -0.5584749999998908 0.9278649999998339 -0.2940600000000321 -0.5101850000000719 -0.8137749999998731 -0.017959999999997093 -0.0034334999999998768 -0.19723799999998512 -0.3344900000000623 -0.4106550000000254 -0.4951399999999925 0.2561700000000681 -2.545750000000288 -0.2960299999999757 0.2788000000000372 1.54385000000002 0.8284999999998234 -1.3266000000002185 0.8626249999999063 -0.04639700000000946 -1.1350700000001508 -0.2560149999999667 -0.7377399999998115 0.38817000000006663 0.13102000000001893 -0.40205000000004043 1.256900000000201 -0.1892835000000442 0.7715250000000964 -1.005864999999865 0.0346989999999938 0.22407000000001673 -0.6404400000000742 0.3676150000000246 -0.09343699999999489 -0.9315549999999271 -0.03809899999999262 -0.007914999999998297 0.47413999999997863 -0.42515499999992884 -0.25624999999994946 -0.6693599999999197 0.019588999999997952 -0.39306500000009575 0.4735000000000408 -0.4313649999999851 0.023128500000005447 0.19089250000001523 -0.7723900000000733 0.2272899999999954 -0.13696699999998851 -0.5800099999999201 0.7660749999997756 -0.6468699999998493 0.029446000000002814 0.4940049999999159 -0.21798500000002438
9q5cv,0.8254250000002494 -0.49801500000007193 0.4272700000000745 -0.7002599999998 0.5346950000000897 0.7751250000000837 0.3926700000000991 0.7845100000000199 -0.006879999999999174 0.49641499999987476 -0.02514150000000116 -0.975104999999947 -0.36514999999998216 -0.4196499999998954 -0.06902049999998851 -0.9241700000001212 0.5809399999998823 0.692250000000049 -0.38662999999997244 0.060771499999989244 0.2102795000000389 0.17747999999998704 -0.7321599999997511 0.3562099999999383 0.4309549999998871 -0.2873800000000957 0.36121499999992424 -1.1249000000002558 -0.01011850000000186 0.030046500000008476 -0.054544500000012146 0.12223049999995605 0.21611500000002581 0.8219599999999254 -0.2735800000000319 -0.1714050000000376 0.4694250000000123 -0.43350000000007605 0.4755800000000468 0.2953050000000712 0.11964050000000648 -0.49265999999990423 -0.9341999999998075 -0.5584749999998737 0.9278649999997928 -0.29406000000006444 -0.5101850000000766 -0.8137750000000255 -0.01795999999999499 -0.0034334999999998746 -0.1972380000000342 -0.33449000000009116 -0.41065499999994537 -0.4951399999999924 0.25617000000007806 -2.5457500000002478 -0.29602999999997515 0.27880000000003935 1.5438499999996034 0.8284999999997767 -1.3266000000002431 0.8626249999998707 -0.046396999999999036 -1.135070000000178 -0.25601499999995914 -0.737739999999933 0.38817000000009116 0.13102000000002265 -0.40204999999995955 1.256900000000227 -0.18928350000000876 0.7715250000000996 -1.0058649999997058 0.03469899999999273 0.22407000000006153 -0.6404400000000218 0.3676150000000453 -0.09343699999999479 -0.9315549999997609 -0.03809899999999163 -0.007914999999997998 0.4741400000000439 -0.4251549999999231 -0.25624999999994014 -0.6693599999999083 0.01958899999999757 -0.39306500000012123 0.4735000000000448 -0.4313650000000738 0.023128500000001564 0.19089249999996571 -0.7723900000000764 0.22728999999995297 -0.13696699999997114 -0.5800099999998635 0.7660749999997226 -0.6468699999998601 0.029446000000003823 0.4940049999998339 -0.21798500000007098
9q5cw,0.8254249999999957 -0.49801500000002097 0.42727000000001414 -0.700259999999983 0.5346949999999472 0.775125000000051 0.3926700000000184 0.7845100000000702 -0.006880000000000521 0.49641500000004396 -0.025141499999998016 -0.9751050000001635 -0.36515000000004755 -0.41964999999997094 -0.06902050000000756 -0.9241700000000117 0.5809399999999367 0.6922500000000399 -0.38662999999997655 0.06077149999999139 0.2102795000000082 0.17747999999998817 -0.7321599999999345 0.35620999999995745 0.43095499999996134 -0.2873799999999874 0.36121499999994644 -1.1248999999998568 -0.010118499999999371 0.030046499999997867 -0.05454450000000433 0.12223050000000056 0.2161149999999647 0.8219600000001355 -0.27358000000002575 -0.17140500000002554 0.46942499999991755 -0.43350000000005756 0.4755799999999439 0.29530500000004406 0.11964049999998101 -0.4926599999999214 -0.934199999999923 -0.5584749999999304 0.9278649999999289 -0.29405999999995924 -0.5101850000000611 -0.8137749999999385 -0.017960000000001492 -0.0034334999999998815 -0.19723799999998637 -0.33448999999999546 -0.410655000000008 -0.4951399999999926 0.2561700000000452 -2.545749999999835 -0.2960299999999769 0.2788000000000322 1.5438500000000195 0.8284999999999314 -1.326600000000161 0.8626249999999884 -0.0463970000000075 -1.1350700000000875 -0.2560149999999842 -0.7377399999999378 0.38817000000000973 0.13102000000001032 -0.4020500000000109 1.2569000000001405 -0.18928350000001357 0.7715250000000887 -1.0058650000000695 0.03469899999999628 0.22406999999998695 -0.6404400000000465 0.36761499999997654 -0.09343699999999512 -0.9315550000000622 -0.038098999999994915 -0.007914999999998987 0.4741399999999422 -0.425154999999942 -0.25624999999997106 -0.6693599999999466 0.019588999999998833 -0.39306500000003675 0.47350000000003145 -0.43136499999995104 0.023128500000001526 0.1908925000000137 -0.7723900000000662 0.22729000000002403 -0.13696700000001924 -0.5800100000000407 0.7660749999998986 -0.6468699999999932 0.02944600000000047 0.4940050000000139 -0.2179849999999988
9q5cr,0.8254249999999957 -0.4980150000000288 0.4272700000000234 -0.7002599999999548 0.5346949999999381 0.775125000000056 0.39267000000003077 0.7845100000000963 -0.006880000000000668 0.49641500000004596 -0.02514149999999736 -0.9751050000001847 -0.36515000000005043 -0.4196499999999593 -0.06902050000000828 -0.9241700000000286 0.5809399999999284 0.6922500000000413 -0.3866299999999759 0.060771499999991055 0.21027950000001291 0.17747999999999364 -0.7321599999999063 0.3562099999999545 0.43095499999994996 -0.28737999999999764 0.361214999999943 -1.124899999999875 -0.010118499999999753 0.030046499999997832 -0.05454450000000553 0.12223050000000056 0.2161149999999632 0.8219600000001418 -0.2735800000000267 -0.1714050000000274 0.4694249999999065 -0.43350000000006045 0.4755799999999335 0.2953050000000482 0.11964049999997832 -0.4926599999999187 -0.9341999999999052 -0.5584749999999218 0.927864999999908 -0.29405999999997345 -0.5101850000000635 -0.8137749999999143 -0.0179600000000009 -0.0034334999999998807 -0.19723799999998512 -0.33449000000001017 -0.41065500000001764 -0.4951399999999926 0.25617000000005025 -2.5457499999999347 -0.29602999999997665 0.2788000000000333 1.5438500000000197 0.8284999999999076 -1.3266000000001736 0.8626249999999703 -0.04639700000000793 -1.1350700000001013 -0.25601499999998034 -0.73773999999991 0.3881700000000222 0.1310200000000122 -0.40205000000002117 1.2569000000001538 -0.1892835000000203 0.7715250000000904 -1.0058650000000706 0.03469899999999574 0.22406999999998667 -0.6404400000000526 0.3676149999999871 -0.09343699999999507 -0.9315550000000664 -0.03809899999999441 -0.007914999999998834 0.4741399999999318 -0.42515499999993905 -0.25624999999996634 -0.6693599999999407 0.019588999999998642 -0.39306500000004974 0.4735000000000335 -0.4313649999999482 0.02312850000000239 0.19089250000001404 -0.7723900000000677 0.2272900000000252 -0.13696700000001982 -0.5800100000000227 0.7660749999998715 -0.6468699999999615 0.029446000000000985 0.49400500000001407 -0.2179849999999988
9q5fp,0.8254249999999957 -0.4980149999999716 0.427269999999992 -0.7002600000000275 0.5346950000000382 0.7751249999999682 0.392669999999976 0.7845099999999663 -0.00687999999999997 0.496415000000011 -0.025141499999999234 -0.975104999999987 -0.36515 -0.4196500000000252 -0.06902049999999563 -0.9241699999999419 0.5809400000000386 0.6922500000000167 -0.386629999999987 0.06077149999999682 0.21027949999999868 0.17747999999999964 -0.7321600000000186 0.356210000000006 0.4309550000000219 -0.2873799999999909 0.36121500000000284 -1.1248999999999316 -0.01011850000000058 0.030046499999998432 -0.05454449999999994 0.12223050000000056 0.21611499999998937 0.8219600000000317 -0.27358000000001015 -0.1714049999999948 0.46942500000000104 -0.4335000000000107 0.4755800000000202 0.29530499999999094 0.1196405000000024 -0.49265999999996474 -0.9342000000000156 -0.5584750000000279 0.9278650000000694 -0.29405999999997745 -0.5101850000000216 -0.8137750000000402 -0.017960000000000604 -0.0034334999999998997 -0.1972380000000067 -0.3344899999999829 -0.4106549999999946 -0.49513999999999314 0.2561699999999975 -2.5457500000001656 -0.2960299999999814 0.278800000000014 1.5438500000000188 0.8285000000000393 -1.3265999999999591 0.8626250000000321 -0.04639700000000038 -1.135069999999942 -0.2560150000000121 -0.7377400000000208 0.3881699999999701 0.13101999999999528 -0.40204999999999463 1.2568999999999528 -0.18928349999999075 0.771525000000061 -1.0058650000000495 0.03469900000000229 0.2240699999999915 -0.6404399999999575 0.3676149999999911 -0.09343699999999595 -0.9315549999999934 -0.038099000000001756 -0.007915000000000325 0.4741400000000185 -0.4251549999999898 -0.25625000000001397 -0.6693600000000426 0.019589000000001508 -0.39306499999998445 0.4734999999999976 -0.4313649999999975 0.023128499999998935 0.1908925000000081 -0.7723900000000402 0.22729000000000502 -0.13696700000000953 -0.5800099999999648 0.7660750000000006 -0.646870000000024 0.029445999999998054 0.4940050000000119 -0.2179849999999988
9q5dq,0.8254249999999959 -0.49801499999998333 0.427270000000005 -0.7002600000000209 0.5346950000000354 0.775124999999946 0.39266999999997954 0.7845099999999681 -0.006880000000000137 0.49641500000000194 -0.025141499999998547 -0.9751049999999872 -0.36514999999999415 -0.4196500000000219 -0.06902049999999596 -0.9241699999999674 0.5809400000000361 0.6922500000000104 -0.3866299999999898 0.06077149999999832 0.21027950000000525 0.1774800000000025 -0.7321600000000181 0.35621000000000913 0.43095500000001913 -0.2873799999999919 0.36121500000000983 -1.1248999999999523 -0.010118500000000544 0.030046499999998588 -0.05454450000000123 0.12223050000000055 0.21611499999999617 0.821960000000003 -0.2735800000000058 -0.17140499999999395 0.469425000000001 -0.4334999999999978 0.47558000000001777 0.2953049999999919 0.11964050000000236 -0.4926599999999767 -0.9341999999999954 -0.5584750000000255 0.9278650000000631 -0.29405999999998245 -0.5101850000000108 -0.8137750000000343 -0.017960000000000358 -0.003433499999999905 -0.19723800000001235 -0.33448999999998646 -0.4106550000000082 -0.49513999999999325 0.2561699999999975 -2.5457500000001563 -0.29602999999998264 0.27880000000000893 1.5438500000000188 0.8285000000000335 -1.3265999999999727 0.8626250000000051 -0.04639699999999909 -1.1350699999999618 -0.25601500000000665 -0.7377400000000194 0.38816999999997387 0.13101999999999792 -0.40205000000000657 1.2568999999999673 -0.1892834999999912 0.7715250000000534 -1.005865000000044 0.034699000000002124 0.22406999999999275 -0.6404399999999666 0.36761500000000064 -0.09343699999999618 -0.9315549999999744 -0.03809900000000163 -0.007915000000000288 0.4741400000000161 -0.42515500000000295 -0.2562500000000126 -0.6693600000000341 0.019589000000001213 -0.39306499999998534 0.4734999999999882 -0.4313650000000103 0.023128499999998994 0.19089250000000657 -0.7723900000000331 0.22728999999999977 -0.13696700000000683 -0.5800099999999746 0.7660750000000006 -0.6468700000000223 0.029445999999998834 0.49400500000001135 -0.21798499999999882
9q5f2,0.8254249999999957 -0.4980150000000513 0.42727000000005005 -0.7002599999998739 0.5346950000000118 0.7751250000000705 0.3926700000000665 0.7845100000001712 -0.00688000000000072 0.4964149999999792 -0.02514149999999548 -0.9751050000001147 -0.3651500000000587 -0.4196499999999259 -0.06902049999999794 -0.9241700000000769 0.5809399999999043 0.6922500000000453 -0.38662999999997405 0.06077149999999011 0.2102795000000265 0.1774800000000094 -0.7321599999998252 0.35620999999994607 0.4309549999999171 -0.28738000000004893 0.3612149999999332 -1.124900000000074 -0.010118500000000856 0.03004650000000149 -0.05454450000000899 0.1222304999999839 0.21611499999996675 0.8219600000001599 -0.2735800000000294 -0.17140500000003275 0.4694249999999253 -0.43350000000006855 0.4755799999999595 0.29530500000006027 0.11964049999998512 -0.49265999999991117 -0.9341999999998541 -0.5584749999998966 0.9278649999998478 -0.294060000000021 -0.5101850000000703 -0.8137749999998446 -0.01795999999999781 -0.003433499999999877 -0.19723799999998157 -0.3344900000000525 -0.41065500000004534 -0.49513999999999253 0.25617000000006473 -2.545750000000222 -0.29602999999997587 0.27880000000003646 1.5438500000000197 0.8284999999998393 -1.32660000000021 0.8626249999999183 -0.046397000000009174 -1.1350700000001415 -0.2560149999999693 -0.7377399999998301 0.38817000000005825 0.13102000000001768 -0.40205000000005076 1.2569000000001922 -0.1892835000000397 0.7715250000000952 -1.0058649999999192 0.034698999999994165 0.2240700000000015 -0.6404400000000702 0.36761500000001757 -0.09343699999999491 -0.9315549999999837 -0.03809899999999296 -0.007914999999998397 0.47413999999995643 -0.4251549999999307 -0.2562499999999526 -0.6693599999999237 0.01958899999999808 -0.39306500000008715 0.4735000000000394 -0.431364999999955 0.02312850000000487 0.190892500000015 -0.7723900000000723 0.22729000000000985 -0.13696699999999443 -0.5800099999999394 0.7660749999997937 -0.6468699999998704 0.02944600000000247 0.49400499999994374 -0.21798500000000853
9q5be,0.8254249999999957 -0.4980150000000261 0.4272700000000202 -0.7002599999999647 0.5346949999999413 0.7751250000000542 0.39267000000002644 0.7845100000000872 -0.0068800000000006165 0.49641500000004524 -0.02514149999999759 -0.9751050000001774 -0.36515000000004944 -0.41964999999996333 -0.06902050000000828 -0.9241700000000227 0.5809399999999313 0.6922500000000408 -0.3866299999999761 0.06077149999999117 0.21027950000001128 0.17747999999999173 -0.7321599999999162 0.35620999999995556 0.4309549999999539 -0.2873799999999914 0.3612149999999442 -1.124899999999854 -0.010118499999999619 0.030046499999997846 -0.05454450000000512 0.12223050000000056 0.21611499999996373 0.8219600000001396 -0.27358000000002636 -0.17140500000002673 0.4694249999999104 -0.43350000000005945 0.4755799999999371 0.2953050000000468 0.11964049999997925 -0.49265999999991966 -0.9341999999999114 -0.5584749999999248 0.9278649999999152 -0.29405999999996774 -0.5101850000000626 -0.8137749999999228 -0.017960000000001274 -0.003433499999999881 -0.19723799999998556 -0.33449000000000506 -0.41065500000001426 -0.4951399999999926 0.25617000000004847 -2.5457499999999 -0.29602999999997676 0.2788000000000329 1.5438500000000197 0.8284999999999159 -1.3266000000001694 0.8626249999999767 -0.04639700000000778 -1.1350700000000964 -0.25601499999998173 -0.7377399999999197 0.3881700000000179 0.13102000000001157 -0.4020500000000176 1.2569000000001491 -0.18928350000001795 0.7715250000000898 -1.0058650000000702 0.03469899999999593 0.22406999999998675 -0.6404400000000504 0.3676149999999834 -0.09343699999999508 -0.931555000000065 -0.03809899999999459 -0.007914999999998888 0.47413999999993545 -0.4251549999999401 -0.256249999999968 -0.6693599999999427 0.019588999999998708 -0.39306500000004524 0.4735000000000328 -0.4313649999999492 0.02312850000000209 0.19089250000001393 -0.7723900000000672 0.22729000000002478 -0.13696700000001963 -0.5800100000000328 0.7660749999998809 -0.6468699999999726 0.029446000000000805 0.494005000000014 -0.2179849999999988
9q5c6,0.8254249999999959 -0.4980149999999924 0.42726999999998033 -0.7002600000000465 0.5346949999999803 0.7751250000000327 0.3926699999999731 0.7845099999999753 -0.006879999999999984 0.49641500000003663 -0.0251415000000004 -0.9751050000000863 -0.36515000000003706 -0.41965000000001323 -0.06902050000000355 -0.9241699999999504 0.5809399999999673 0.6922500000000348 -0.3866299999999788 0.06077149999999259 0.21027949999999102 0.1774799999999762 -0.7321600000000199 0.35620999999996816 0.430955000000003 -0.2873799999999882 0.3612149999999589 -1.1248999999998734 -0.010118499999999211 0.03004649999999799 -0.054544499999999954 0.12223050000000055 0.21611499999997016 0.8219600000001126 -0.2735800000000223 -0.17140500000001874 0.4694249999999578 -0.43350000000004724 0.47557999999998163 0.2953050000000288 0.11964049999999085 -0.492659999999931 -0.9341999999999877 -0.5584749999999623 0.9278650000000053 -0.2940599999999633 -0.5101850000000523 -0.8137750000000267 -0.017960000000001298 -0.003433499999999886 -0.19723799999999087 -0.33448999999997286 -0.4106549999999729 -0.49513999999999275 0.25617000000002677 -2.545749999999825 -0.2960299999999779 0.2788000000000282 1.5438500000000193 0.828500000000018 -1.326600000000115 0.8626250000000545 -0.046397000000005933 -1.1350700000000367 -0.25601499999999827 -0.7377400000000252 0.38816999999996404 0.13102000000000344 -0.4020499999999735 1.256900000000092 -0.18928349999998945 0.7715250000000826 -1.005865000000065 0.03469899999999827 0.22406999999998795 -0.6404400000000243 0.36761499999994574 -0.0934369999999953 -0.931555000000047 -0.038098999999996754 -0.00791499999999954 0.47413999999998013 -0.42515499999995254 -0.25624999999998843 -0.669359999999968 0.01958899999999954 -0.3930649999999894 0.47350000000002396 -0.4313649999999613 0.023128499999998768 0.19089250000001245 -0.7723900000000604 0.22729000000001984 -0.1369670000000171 -0.5800100000000159 0.7660749999999972 -0.6468700000000289 0.02944599999999859 0.49400500000001346 -0.21798499999999882
9q5fr,0.8254249999999957 -0.4980149999999758 0.4272699999999613 -0.7002600000000434 0.5346949999999996 0.7751250000000222 0.39266999999996755 0.7845099999999621 -0.006879999999999673 0.4964150000000324 -0.02514150000000086 -0.9751050000000414 -0.36515000000003095 -0.41965000000003316 -0.06902050000000122 -0.9241699999999148 0.5809399999999849 0.6922500000000318 -0.38662999999998016 0.06077149999999328 0.21027949999998313 0.17747999999998007 -0.7321600000000197 0.3562099999999744 0.4309550000000272 -0.28737999999998864 0.36121499999996615 -1.124899999999883 -0.01011849999999946 0.030046499999998064 -0.054544499999997414 0.12223050000000055 0.21611499999997333 0.8219600000000993 -0.2735800000000203 -0.17140500000001482 0.46942499999998116 -0.43350000000004124 0.47558000000000356 0.29530500000001997 0.11964049999999656 -0.49265999999993654 -0.9342000000000253 -0.5584749999999808 0.9278650000000496 -0.2940599999999656 -0.5101850000000473 -0.8137750000000539 -0.017960000000001183 -0.003433499999999888 -0.19723799999999345 -0.33448999999997453 -0.41065499999996236 -0.4951399999999928 0.25617000000001605 -2.54574999999989 -0.29602999999997853 0.2788000000000258 1.5438500000000195 0.8285000000000529 -1.3266000000000882 0.8626250000000928 -0.04639700000000502 -1.1350700000000071 -0.2560150000000065 -0.7377400000000244 0.38816999999996116 0.13101999999999941 -0.40204999999996655 1.2569000000000639 -0.18928349999998964 0.7715250000000791 -1.0058650000000624 0.03469899999999943 0.22406999999998853 -0.6404400000000114 0.36761499999995323 -0.0934369999999954 -0.9315550000000381 -0.038098999999997815 -0.007914999999999861 0.47414000000000217 -0.42515499999995865 -0.2562499999999985 -0.6693599999999805 0.01958899999999995 -0.39306499999998235 0.47350000000001957 -0.43136499999996725 0.023128499999998796 0.19089250000001173 -0.7723900000000572 0.2272900000000174 -0.13696700000001585 -0.5800100000000015 0.7660750000000006 -0.6468700000000281 0.0294459999999975 0.4940050000000132 -0.21798499999999882
9qh10,0.8254250000003428 -0.4980150000000792 0.4272700000000831 -0.700259999999774 0.5346950000001174 0.7751250000000883 0.39267000000011065 0.784509999999946 -0.006879999999998628 0.4964149999998378 -0.025141500000003546 -0.9751049999998876 -0.36514999999993203 -0.4196499999998846 -0.06902049999999378 -0.9241700000001368 0.5809399999998747 0.6922500000000503 -0.38662999999997183 0.06077149999998894 0.21027950000004328 0.177479999999965 -0.7321599999997249 0.3562099999999356 0.43095499999987646 -0.2873800000000613 0.36121499999992107 -1.1249000000001517 -0.010118500000002216 0.03004650000001095 -0.054544500000013256 0.12223049999994622 0.21611500000004671 0.8219599999998375 -0.2735800000000328 -0.17140500000003933 0.46942500000004306 -0.43350000000007866 0.47558000000007766 0.2953050000000133 0.11964050000001403 -0.4926599999999018 -0.934199999999791 -0.5584749999998656 0.9278649999997732 -0.29406000000007976 -0.5101850000000788 -0.8137750000000976 -0.017959999999997176 -0.0034334999999998733 -0.19723800000005745 -0.3344900000001048 -0.4106549999999074 -0.49513999999999236 0.25617000000008094 -2.545749999999856 -0.29603000000003765 0.2788000000000404 1.5438499999994038 0.8284999999997547 -1.3266000000002551 0.862624999999854 -0.046396999999992944 -1.135070000000191 -0.2560149999999556 -0.7377400000000116 0.38817000000010277 0.13102000000001846 -0.4020499999999212 1.2569000000002395 -0.18928349999998959 0.7715250000001012 -1.0058649999996305 0.03469899999999681 0.22407000000008276 -0.6404399999999071 0.36761500000005515 -0.09343699999999473 -0.931554999999682 -0.03809899999999116 -0.007914999999997858 0.4741400000000749 -0.42515499999992046 -0.2562499999999376 -0.6693599999999027 0.01958899999999739 -0.3930650000001333 0.4735000000000467 -0.4313650000001158 0.023128499999999115 0.19089249999994082 -0.7723900000000778 0.22728999999993288 -0.1369669999999629 -0.5800099999998366 0.7660749999996975 -0.6468699999999498 0.029446000000004302 0.494004999999795 -0.21798500000009308
9q5dr,0.8254249999999957 -0.4980149999999527 0.427269999999971 -0.7002600000000384 0.5346950000000303 0.7751250000000052 0.39266999999997015 0.7845099999999634 -0.0068799999999997 0.4964150000000257 -0.025141500000000348 -0.9751049999999865 -0.3651500000000212 -0.41965000000003067 -0.0690204999999975 -0.9241699999999006 0.5809400000000132 0.692250000000027 -0.3866299999999823 0.0607714999999944 0.21027949999998805 0.17747999999998623 -0.7321600000000194 0.3562099999999844 0.4309550000000264 -0.28737999999998937 0.3612149999999777 -1.1248999999998983 -0.010118499999999857 0.03004649999999818 -0.05454449999999785 0.12223050000000056 0.21611499999997835 0.821960000000078 -0.2735800000000171 -0.17140500000000852 0.46942500000000104 -0.43350000000003164 0.47558000000002426 0.2953050000000058 0.11964050000000248 -0.4926599999999454 -0.9342000000000481 -0.5584750000000104 0.9278650000000798 -0.29405999999996935 -0.5101850000000392 -0.8137750000000495 -0.017960000000001 -0.003433499999999892 -0.19723799999999764 -0.33448999999997714 -0.4106549999999725 -0.49513999999999286 0.25616999999999895 -2.5457499999999933 -0.2960299999999794 0.2788000000000221 1.5438500000000193 0.8285000000000485 -1.3266000000000453 0.8626250000000758 -0.04639700000000356 -1.13506999999996 -0.25601500000001953 -0.7377400000000233 0.388169999999964 0.131019999999993 -0.40204999999997537 1.2569000000000186 -0.18928349999999 0.7715250000000733 -1.0058650000000584 0.034699000000001284 0.22406999999998944 -0.6404399999999908 0.3676149999999651 -0.09343699999999558 -0.9315550000000241 -0.03809899999999953 -0.007915000000000375 0.4741400000000224 -0.4251549999999685 -0.25625000000001463 -0.6693600000000005 0.01958900000000061 -0.393064999999983 0.4735000000000127 -0.43136499999997674 0.02312849999999884 0.1908925000000106 -0.7723900000000519 0.2272900000000135 -0.13696700000001386 -0.5800099999999784 0.7660750000000006 -0.6468700000000268 0.029445999999996787 0.4940050000000128 -0.2179849999999988
9q59r,0.8254249999999964 -0.49801500000000437 0.4272699999999947 -0.7002600000000011 0.5346949999999994 0.7751250000000024 0.39267000000000335 0.7845100000000078 -0.006880000000000106 0.496415000000007 -0.025141500000000126 -0.9751049999999947 -0.3651499999999999 -0.4196499999999961 -0.06902050000000046 -0.9241700000000029 0.5809399999999983 0.6922500000000013 -0.38662999999999725 0.06077150000000066 0.21027949999999884 0.17748000000000172 -0.7321600000000058 0.3562100000000027 0.43095500000000475 -0.2873800000000024 0.3612149999999956 -1.1249000000000142 -0.010118499999999937 0.03004649999999976 -0.054544499999999496 0.12223050000000048 0.21611500000000136 0.8219599999999931 -0.27358000000000066 -0.17140499999999742 0.469425000000001 -0.4335000000000036 0.47558000000000056 0.2953050000000029 0.11964050000000118 -0.49266000000000065 -0.9341999999999921 -0.5584749999999927 0.9278649999999973 -0.2940600000000016 -0.5101850000000013 -0.8137750000000087 -0.01796000000000025 -0.0034335000000000355 -0.19723799999999891 -0.33448999999999696 -0.4106549999999971 -0.49513999999999686 0.25616999999999807 -2.5457499999999986 -0.2960300000000016 0.2787999999999987 1.5438500000000137 0.8285000000000075 -1.3265999999999918 0.8626249999999915 -0.04639699999999971 -1.1350700000000062 -0.2560150000000004 -0.7377399999999904 0.3881700000000019 0.13102000000000075 -0.4020500000000022 1.256899999999983 -0.18928350000000116 0.7715249999999972 -1.005864999999984 0.034698999999999834 0.22406999999999866 -0.6404400000000076 0.36761500000000064 -0.09343700000000103 -0.9315550000000028 -0.03809899999999996 -0.007914999999999983 0.47414000000000167 -0.4251549999999954 -0.25624999999999715 -0.6693599999999974 0.01958899999999989 -0.3930650000000051 0.47350000000000125 -0.4313649999999996 0.023128500000000225 0.19089250000000083 -0.772389999999989 0.22728999999999788 -0.13696699999999884 -0.5800099999999996 0.7660750000000006 -0.6468699999999964 0.029446000000000076 0.4940049999999967 -0.21798499999999896
9q5f0,0.8254249999999959 -0.49801500000000765 0.42727000000001186 -0.7002599999999924 0.5346950000000239 0.7751249999999781 0.3926699999999945 0.7845099999999755 -0.0068800000000001655 0.49641499999998895 -0.025141499999999272 -0.9751049999999883 -0.3651500000000069 -0.41965000000000785 -0.06902049999999735 -0.9241700000000035 0.5809400000000254 0.6922499999999833 -0.3866300000000019 0.06077150000000108 0.21027950000000778 0.17748000000000239 -0.7321600000000161 0.3562099999999958 0.43095500000000747 -0.28737999999999597 0.36121500000000656 -1.1249000000000213 -0.010118500000000396 0.030046499999999244 -0.05454450000000111 0.12223050000000055 0.21611500000000178 0.8219599999999911 -0.2735799999999939 -0.1714049999999945 0.46942500000000104 -0.43349999999998884 0.4755800000000074 0.2953049999999958 0.11964050000000216 -0.4926600000000007 -0.9341999999999788 -0.558475000000015 0.9278650000000364 -0.2940600000000017 -0.5101849999999866 -0.8137750000000098 -0.01795999999999952 -0.003433499999999926 -0.19723800000000533 -0.3344900000000015 -0.41065500000001126 -0.4951399999999938 0.2561699999999976 -2.545750000000117 -0.29602999999998786 0.2787999999999929 1.543850000000018 0.8285000000000096 -1.32660000000003 0.862624999999984 -0.04639699999999919 -1.1350700000000291 -0.25601499999999416 -0.737740000000013 0.38816999999998986 0.13102000000000452 -0.40204999999999874 1.2569000000000279 -0.18928349999999317 0.7715250000000211 -1.0058650000000209 0.03469900000000143 0.22406999999999805 -0.6404400000000049 0.36761500000000064 -0.09343699999999716 -0.9315549999999634 -0.03809900000000111 -0.007915000000000135 0.4741400000000061 -0.42515500000000983 -0.25625000000000686 -0.6693599999999987 0.019588999999999978 -0.393064999999989 0.47349999999998094 -0.431365000000018 0.023128499999999243 0.19089250000000008 -0.7723900000000029 0.22728999999999677 -0.13696699999999862 -0.58001000000001 0.7660750000000006 -0.6468700000000148 0.02944600000000008 0.49400500000000896 -0.21798499999999882
9q5by,0.8254249999999957 -0.4980149999999969 0.42726999999998566 -0.7002600000000474 0.534694999999975 0.7751250000000356 0.39266999999998026 0.7845099999999904 -0.006880000000000069 0.4964150000000378 -0.02514150000000002 -0.9751050000000985 -0.3651500000000387 -0.4196500000000066 -0.06902050000000419 -0.9241699999999601 0.5809399999999624 0.6922500000000356 -0.38662999999997844 0.060771499999992394 0.21027949999999374 0.17747999999997519 -0.73216000000002 0.3562099999999665 0.43095499999999637 -0.2873799999999881 0.36121499999995693 -1.1248999999998708 -0.010118499999999144 0.030046499999997974 -0.05454450000000065 0.12223050000000056 0.21611499999996928 0.8219600000001162 -0.27358000000002286 -0.17140500000001982 0.4694249999999514 -0.4335000000000489 0.47557999999997563 0.29530500000003124 0.11964049999998928 -0.49265999999992943 -0.9341999999999775 -0.5584749999999573 0.9278649999999932 -0.29405999999996263 -0.5101850000000537 -0.8137750000000128 -0.01796000000000133 -0.003433499999999885 -0.19723799999999014 -0.3344899999999724 -0.41065499999997845 -0.4951399999999927 0.25617000000002965 -2.5457499999998077 -0.29602999999997776 0.2788000000000288 1.5438500000000195 0.8285000000000042 -1.3266000000001223 0.8626250000000439 -0.046397000000006176 -1.1350700000000447 -0.25601499999999605 -0.7377400000000229 0.3881699999999713 0.13102000000000452 -0.40204999999997937 1.2569000000000996 -0.1892834999999929 0.7715250000000835 -1.0058650000000657 0.03469899999999796 0.22406999999998778 -0.6404400000000279 0.36761499999994407 -0.09343699999999527 -0.9315550000000494 -0.03809899999999646 -0.007914999999999452 0.47413999999997414 -0.4251549999999509 -0.2562499999999857 -0.6693599999999646 0.01958899999999943 -0.3930649999999969 0.4735000000000251 -0.4313649999999597 0.023128499999998883 0.19089250000001265 -0.7723900000000613 0.2272900000000205 -0.13696700000001744 -0.5800100000000198 0.7660749999999816 -0.6468700000000291 0.029445999999998886 0.4940050000000135 -0.2179849999999988
9q5cs,0.8254250000004201 -0.4980149999999158 0.4272700000000939 -0.700259999999741 0.5346950000001521 0.7751250000000942 0.3926700000001252 0.7845099999998526 -0.006879999999997938 0.4964149999997912 -0.025141500000006554 -0.9751050000001265 -0.3651499999998689 -0.41964999999987096 -0.06902050000001157 -0.9241699999999259 0.5809399999998648 0.692250000000052 -0.3866299999999711 0.06077150000000789 0.2102795000000488 0.1774799999999372 -0.7321599999996918 0.35620999999993214 0.4309549999998631 -0.28737999999999764 0.3612149999999171 -1.124899999999887 -0.010118500000002665 0.03004650000001407 -0.05454450000001466 0.1222304999999735 0.21611500000007305 0.8219599999997597 -0.2735800000000339 -0.17140500000004152 0.4694249999999542 -0.43350000000001904 0.4755800000001166 0.2953049999999359 0.11964050000002355 -0.49265999999989873 -0.9341999999997702 -0.5584749999998554 0.9278649999999857 -0.29406000000009913 -0.5101849999998914 -0.8137750000001737 -0.017960000000001204 -0.003433499999999872 -0.19723800000008682 -0.334490000000122 -0.4106549999998595 -0.4951400000001607 0.25616999999999207 -2.5457499999993622 -0.2960300000001194 0.2788000000000417 1.543849999999152 0.8284999999997268 -1.3266000000002698 0.8626249999999499 -0.04639699999998527 -1.1350700000002072 -0.25601499999995103 -0.7377400000001109 0.3881700000001175 0.13101999999997432 -0.4020499999998728 1.2569000000002553 -0.18928349999996538 0.7715250000001032 -1.0058649999995353 0.034699000000007106 0.22407000000010957 -0.6404399999997625 0.3676150000000676 -0.09343699999999468 -0.9315549999995826 -0.03809899999999057 -0.007914999999997679 0.47414000000011386 -0.42515499999996337 -0.25625000000002685 -0.6693599999998958 0.019588999999997164 -0.39306500000014855 0.47350000000004905 -0.4313650000001688 0.02312849999999602 0.1908924999999094 -0.7723900000000797 0.2272899999999075 -0.13696699999995252 -0.5800099999998026 0.7660749999996658 -0.6468700000000629 0.029446000000004902 0.4940049999999126 -0.21798500000012092
9q5ct,0.8254250000003363 -0.49801499999987164 0.4272700000000965 -0.7002599999997331 0.5346950000001603 0.7751250000000955 0.39267000000009505 0.7845099999998958 -0.006879999999997774 0.49641499999978017 -0.025141500000007266 -0.9751050000002033 -0.3651499999998539 -0.41964999999986774 -0.06902050000001579 -0.9241699999998308 0.5809399999998625 0.6922500000000523 -0.3866299999999908 0.060771500000013724 0.2102795000000501 0.1774799999999306 -0.732159999999684 0.3562099999999313 0.4309549999998599 -0.28737999999998254 0.36121499999991613 -1.1248999999998244 -0.010118500000002771 0.030046500000014808 -0.054544500000015 0.12223049999998235 0.2161150000000793 0.8219599999998456 -0.2735800000000342 -0.17140500000004205 0.4694249999999143 -0.4334999999999667 0.4755800000001258 0.2953049999999176 0.11964050000002581 -0.492659999999898 -0.9341999999997652 -0.558474999999853 0.9278650000000793 -0.29406000000010374 -0.5101849999998469 -0.813775000000082 -0.01796000000000216 -0.003433499999999872 -0.19723800000007494 -0.33449000000012613 -0.4106549999998481 -0.49514000000020725 0.256169999999971 -2.545749999999245 -0.2960300000001388 0.278800000000042 1.543849999999166 0.8284999999997202 -1.3266000000002733 0.8626250000000518 -0.046396999999983445 -1.1350700000002112 -0.25601499999995 -0.7377400000001344 0.3881700000001209 0.13101999999996383 -0.40204999999991536 1.2569000000002588 -0.18928349999995964 0.7715250000001035 -1.0058649999995126 0.03469900000000955 0.2240700000001159 -0.6404399999997282 0.3676150000000705 -0.09343699999999466 -0.931554999999559 -0.03809899999999043 -0.007914999999997637 0.47414000000012313 -0.4251550000000168 -0.256250000000048 -0.6693599999998942 0.01958899999999711 -0.39306500000015215 0.47350000000004966 -0.43136500000018135 0.023128499999995288 0.19089249999990196 -0.7723900000000423 0.22728999999990152 -0.13696699999995005 -0.5800099999997946 0.7660749999996583 -0.6468700000000898 0.029446000000005048 0.4940049999999476 -0.21798500000012752
9q5d7,0.8254249999999964 -0.4980150000000041 0.4272699999999948 -0.7002600000000002 0.5346949999999994 0.7751250000000024 0.39267000000000296 0.7845100000000076 -0.006880000000000104 0.49641500000000655 -0.025141500000000126 -0.9751049999999953 -0.3651499999999999 -0.41964999999999647 -0.06902050000000044 -0.924170000000003 0.5809399999999983 0.6922500000000013 -0.38662999999999725 0.06077150000000062 0.21027949999999884 0.17748000000000164 -0.7321600000000048 0.3562100000000026 0.4309550000000043 -0.28738000000000175 0.3612149999999961 -1.1249000000000136 -0.010118499999999938 0.030046499999999685 -0.054544499999999545 0.12223050000000048 0.2161150000000013 0.8219599999999934 -0.2735800000000001 -0.1714049999999977 0.469425000000001 -0.43350000000000327 0.4755800000000019 0.29530500000000226 0.11964050000000108 -0.49266000000000065 -0.9341999999999896 -0.5584749999999931 0.9278649999999973 -0.29406000000000154 -0.5101850000000028 -0.8137750000000078 -0.01796000000000024 -0.003433500000000034 -0.19723799999999891 -0.3344899999999975 -0.41065499999999744 -0.4951399999999972 0.2561699999999981 -2.5457499999999986 -0.29603000000000157 0.27879999999999927 1.5438500000000135 0.8285000000000067 -1.3265999999999922 0.8626249999999923 -0.04639699999999976 -1.135070000000004 -0.256015000000001 -0.7377399999999914 0.3881700000000019 0.1310200000000004 -0.4020500000000022 1.2568999999999837 -0.1892835000000011 0.7715249999999972 -1.0058649999999847 0.03469899999999984 0.2240699999999983 -0.6404400000000073 0.36761500000000064 -0.093437000000001 -0.9315550000000028 -0.03809900000000002 -0.007915000000000002 0.4741400000000032 -0.4251549999999958 -0.25624999999999737 -0.6693599999999983 0.01958899999999989 -0.393065000000005 0.47350000000000125 -0.4313649999999996 0.02312850000000022 0.19089250000000063 -0.77238999999999 0.22728999999999733 -0.13696699999999887 -0.5800099999999985 0.7660750000000006 -0.6468699999999975 0.029446000000000076 0.49400499999999553 -0.21798499999999896
9q5bu,0.8254249999999957 -0.49801499999996907 0.42726999999998916 -0.700260000000029 0.5346950000000388 0.7751249999999732 0.39266999999997515 0.7845099999999658 -0.006879999999999934 0.496415000000013 -0.025141499999999387 -0.9751049999999869 -0.36515000000000286 -0.419650000000026 -0.06902049999999556 -0.9241699999999363 0.5809400000000392 0.692250000000018 -0.3866299999999863 0.060771499999996495 0.21027949999999723 0.1774799999999978 -0.7321600000000187 0.35621000000000314 0.4309550000000225 -0.2873799999999907 0.36121499999999945 -1.1248999999999272 -0.010118500000000587 0.030046499999998397 -0.054544499999999656 0.12223050000000056 0.21611499999998787 0.8219600000000379 -0.2735800000000111 -0.17140499999999667 0.46942500000000104 -0.43350000000001354 0.47558000000002076 0.2953049999999907 0.11964050000000241 -0.49265999999996213 -0.9342000000000199 -0.5584750000000285 0.9278650000000709 -0.29405999999997634 -0.510185000000024 -0.8137750000000414 -0.017960000000000656 -0.003433499999999899 -0.1972380000000055 -0.33448999999998213 -0.4106549999999916 -0.4951399999999931 0.2561699999999975 -2.5457500000001674 -0.29602999999998114 0.2788000000000151 1.5438500000000188 0.8285000000000405 -1.3265999999999647 0.8626250000000381 -0.04639700000000081 -1.1350699999999379 -0.2560150000000133 -0.7377400000000212 0.38816999999996926 0.1310199999999947 -0.4020499999999921 1.2568999999999497 -0.18928349999999064 0.7715250000000626 -1.0058650000000506 0.034699000000002325 0.22406999999999122 -0.6404399999999555 0.3676149999999876 -0.0934369999999959 -0.9315549999999975 -0.03809900000000178 -0.007915000000000333 0.47414000000001905 -0.4251549999999869 -0.25625000000001424 -0.6693600000000381 0.01958900000000157 -0.39306499999998423 0.4734999999999996 -0.4313649999999947 0.023128499999998924 0.19089250000000843 -0.7723900000000418 0.22729000000000615 -0.1369670000000101 -0.5800099999999627 0.7660750000000006 -0.6468700000000244 0.02944599999999788 0.494005000000012 -0.2179849999999988
9q5bs,0.8254249999999957 -0.4980150000000417 0.4272700000000388 -0.7002599999999083 0.5346949999999755 0.7751250000000643 0.3926700000000513 0.7845100000001393 -0.006880000000000911 0.49641500000002786 -0.02514149999999628 -0.9751050000001928 -0.3651500000000552 -0.41964999999994007 -0.06902050000000234 -0.9241700000000564 0.5809399999999145 0.6922500000000436 -0.3866299999999748 0.060771499999990514 0.2102795000000207 0.17748000000000272 -0.7321599999998597 0.3562099999999497 0.4309549999999311 -0.2873800000000271 0.3612149999999374 -1.1248999999999894 -0.010118500000000386 0.03004649999999823 -0.05454450000000752 0.12223049999999687 0.21611499999996073 0.8219600000001521 -0.27358000000002825 -0.17140500000003048 0.4694249999998883 -0.4335000000000651 0.4755799999999188 0.2953050000000551 0.11964049999997517 -0.4926599999999144 -0.9341999999998759 -0.5584749999999074 0.9278649999998734 -0.2940600000000008 -0.5101850000000674 -0.8137749999998742 -0.017959999999999122 -0.0034334999999998785 -0.1972379999999831 -0.3344900000000345 -0.4106550000000335 -0.4951399999999926 0.2561700000000586 -2.5457500000001 -0.2960299999999762 0.27880000000003513 1.5438500000000197 0.8284999999998683 -1.3266000000001947 0.8626249999999405 -0.04639700000000865 -1.1350700000001244 -0.256014999999974 -0.7377399999998641 0.3881700000000429 0.13102000000001535 -0.40205000000003815 1.2569000000001758 -0.18928350000003144 0.7715250000000932 -1.0058650000000187 0.03469899999999483 0.2240699999999862 -0.6404400000000626 0.3676150000000046 -0.09343699999999498 -0.9315550000000733 -0.038098999999993576 -0.007914999999998583 0.47413999999991563 -0.4251549999999343 -0.25624999999995846 -0.6693599999999309 0.01958899999999832 -0.3930650000000712 0.4735000000000369 -0.43136499999994354 0.023128500000003816 0.1908925000000146 -0.7723900000000703 0.2272900000000271 -0.13696700000000528 -0.5800099999999748 0.7660749999998268 -0.6468699999999092 0.02944600000000184 0.494004999999995 -0.2179849999999988
9q5cj,0.8254249999999957 -0.4980150000000284 0.42727000000002296 -0.7002599999999561 0.5346949999999385 0.7751250000000558 0.3926700000000302 0.7845100000000951 -0.006880000000000662 0.49641500000004585 -0.02514149999999739 -0.9751050000001837 -0.36515000000005027 -0.41964999999995983 -0.06902050000000845 -0.9241700000000278 0.5809399999999288 0.6922500000000412 -0.38662999999997594 0.060771499999991076 0.2102795000000127 0.1774799999999934 -0.7321599999999077 0.3562099999999547 0.43095499999995046 -0.2873799999999968 0.36121499999994316 -1.1248999999998717 -0.010118499999999735 0.030046499999997835 -0.05454450000000548 0.12223050000000056 0.21611499999996328 0.8219600000001415 -0.2735800000000267 -0.1714050000000273 0.46942499999990706 -0.4335000000000603 0.475579999999934 0.295305000000048 0.11964049999997844 -0.4926599999999189 -0.9341999999999061 -0.5584749999999221 0.9278649999999089 -0.29405999999997273 -0.5101850000000634 -0.8137749999999154 -0.017960000000000947 -0.0034334999999998807 -0.19723799999998518 -0.3344900000000095 -0.41065500000001715 -0.4951399999999926 0.25617000000004997 -2.5457499999999302 -0.29602999999997665 0.27880000000003324 1.5438500000000197 0.8284999999999088 -1.3266000000001732 0.8626249999999712 -0.04639700000000791 -1.1350700000001006 -0.25601499999998056 -0.7377399999999114 0.38817000000002166 0.13102000000001213 -0.4020500000000207 1.2569000000001531 -0.18928350000001998 0.7715250000000903 -1.0058650000000706 0.03469899999999577 0.22406999999998667 -0.6404400000000523 0.3676149999999866 -0.09343699999999507 -0.9315550000000662 -0.038098999999994436 -0.007914999999998841 0.4741399999999323 -0.4251549999999392 -0.25624999999996656 -0.6693599999999409 0.01958899999999865 -0.3930650000000491 0.4735000000000334 -0.4313649999999483 0.02312850000000235 0.190892500000014 -0.7723900000000676 0.22729000000002514 -0.1369670000000198 -0.580010000000024 0.7660749999998728 -0.6468699999999631 0.02944600000000096 0.494005000000014 -0.2179849999999988
9q5bw,0.8254249999999957 -0.4980149999999642 0.4272699999999655 -0.7002600000000412 0.534695000000013 0.7751250000000147 0.39266999999996866 0.7845099999999626 -0.00687999999999963 0.49641500000002947 -0.025141500000000636 -0.9751050000000101 -0.3651500000000267 -0.41965000000003205 -0.0690204999999996 -0.9241699999998899 0.5809399999999973 0.6922500000000297 -0.3866299999999811 0.06077149999999377 0.21027949999998527 0.17747999999998276 -0.7321600000000196 0.35620999999997877 0.43095500000002757 -0.287379999999989 0.3612149999999712 -1.1248999999998897 -0.010118499999999633 0.030046499999998116 -0.05454449999999731 0.12223050000000055 0.2161149999999755 0.82196000000009 -0.27358000000001886 -0.17140500000001205 0.4694249999999975 -0.433500000000037 0.4755800000000189 0.29530500000001375 0.11964050000000055 -0.4926599999999404 -0.9342000000000517 -0.5584749999999937 0.9278650000000805 -0.29405999999996724 -0.5101850000000437 -0.813775000000052 -0.017960000000001104 -0.0034334999999998898 -0.19723799999999528 -0.33448999999997564 -0.4106549999999668 -0.49513999999999286 0.25617000000000856 -2.545749999999935 -0.2960299999999789 0.2788000000000242 1.5438500000000193 0.828500000000051 -1.3266000000000695 0.8626250000000871 -0.04639700000000438 -1.1350699999999865 -0.25601500000001215 -0.7377400000000239 0.3881699999999624 0.1310199999999966 -0.40204999999997043 1.256900000000044 -0.1892834999999898 0.7715250000000765 -1.0058650000000606 0.034699000000000244 0.22406999999998892 -0.6404400000000023 0.3676149999999584 -0.09343699999999548 -0.931555000000032 -0.038098999999998565 -0.007915000000000085 0.47414000000001755 -0.4251549999999629 -0.25625000000000553 -0.6693599999999893 0.019589000000000238 -0.3930649999999826 0.4735000000000166 -0.4313649999999714 0.023128499999998817 0.19089250000001123 -0.7723900000000549 0.2272900000000157 -0.13696700000001497 -0.5800099999999914 0.7660750000000006 -0.6468700000000276 0.029445999999996735 0.494005000000013 -0.2179849999999988
9q5c8,0.8254250000000083 -0.49801500000005305 0.42727000000005216 -0.7002599999998675 0.5346950000000185 0.7751250000000716 0.3926700000000693 0.784510000000177 -0.006880000000000587 0.49641499999997024 -0.02514149999999533 -0.9751050000001004 -0.36515000000005937 -0.4196499999999233 -0.06902049999999714 -0.9241700000000808 0.5809399999999024 0.6922500000000457 -0.38662999999997394 0.060771499999990035 0.21027950000002757 0.17748000000001066 -0.7321599999998188 0.3562099999999454 0.4309549999999145 -0.2873800000000529 0.3612149999999324 -1.1249000000000897 -0.010118500000000941 0.03004650000000209 -0.05454450000000926 0.1222304999999815 0.21611499999997183 0.8219600000001526 -0.27358000000002963 -0.17140500000003317 0.46942499999993276 -0.4335000000000692 0.475579999999967 0.2953050000000612 0.11964049999998695 -0.49265999999991056 -0.9341999999998502 -0.5584749999998946 0.9278649999998431 -0.29406000000002475 -0.5101850000000708 -0.8137749999998392 -0.017959999999997568 -0.003433499999999877 -0.1972379999999813 -0.33449000000005585 -0.41065500000004346 -0.49513999999999253 0.2561700000000659 -2.545750000000244 -0.2960299999999758 0.27880000000003674 1.54385000000002 0.8284999999998338 -1.326600000000213 0.8626249999999142 -0.04639700000000927 -1.1350700000001446 -0.2560149999999684 -0.7377399999998239 0.3881700000000611 0.1310200000000181 -0.4020500000000531 1.2569000000001953 -0.18928350000004124 0.7715250000000956 -1.005864999999901 0.03469899999999404 0.22407000000000665 -0.6404400000000715 0.36761500000001995 -0.0934369999999949 -0.9315549999999645 -0.03809899999999285 -0.007914999999998363 0.4741399999999639 -0.4251549999999301 -0.25624999999995157 -0.6693599999999224 0.01958899999999804 -0.39306500000009004 0.4735000000000399 -0.4313649999999652 0.023128500000005065 0.1908925000000151 -0.7723900000000726 0.22729000000000496 -0.13696699999999243 -0.5800099999999329 0.7660749999997876 -0.6468699999998633 0.029446000000002585 0.4940049999999343 -0.2179850000000139
9q5dp,0.8254249999999957 -0.498014999999952 0.42726999999997023 -0.7002600000000387 0.5346950000000279 0.7751250000000065 0.39266999999997 0.7845099999999633 -0.00687999999999969 0.49641500000002625 -0.02514150000000039 -0.9751049999999865 -0.36515000000002196 -0.41965000000003083 -0.06902049999999779 -0.9241699999998991 0.580940000000011 0.6922500000000273 -0.38662999999998215 0.06077149999999431 0.21027949999998766 0.17747999999998576 -0.7321600000000194 0.3562099999999836 0.43095500000002657 -0.2873799999999893 0.3612149999999768 -1.1248999999998972 -0.010118499999999827 0.030046499999998172 -0.054544499999997775 0.12223050000000056 0.21611499999997796 0.8219600000000796 -0.2735800000000173 -0.171405000000009 0.46942500000000104 -0.43350000000003236 0.47558000000002437 0.2953050000000069 0.11964050000000248 -0.4926599999999447 -0.9342000000000493 -0.558475000000008 0.9278650000000801 -0.29405999999996907 -0.5101850000000397 -0.8137750000000499 -0.017960000000001013 -0.0034334999999998915 -0.1972379999999973 -0.334489999999977 -0.41065499999997174 -0.49513999999999286 0.2561700000000003 -2.5457499999999853 -0.29602999999997937 0.27880000000002236 1.5438500000000193 0.8285000000000489 -1.3266000000000486 0.8626250000000774 -0.04639700000000367 -1.1350699999999636 -0.25601500000001853 -0.7377400000000234 0.38816999999996377 0.1310199999999935 -0.4020499999999747 1.256900000000022 -0.18928349999998997 0.7715250000000737 -1.0058650000000586 0.03469900000000114 0.2240699999999894 -0.6404399999999923 0.3676149999999642 -0.09343699999999557 -0.9315550000000252 -0.03809899999999939 -0.007915000000000335 0.4741400000000225 -0.4251549999999677 -0.25625000000001336 -0.669359999999999 0.019589000000000557 -0.39306499999998296 0.47350000000001324 -0.431364999999976 0.023128499999998837 0.19089250000001068 -0.7723900000000522 0.22729000000001381 -0.136967000000014 -0.5800099999999802 0.7660750000000006 -0.6468700000000269 0.029445999999996742 0.49400500000001285 -0.2179849999999988
9q5gp,0.825425000000001 -0.4980149999999997 0.42727 -0.70026 0.5346949999999995 0.7751250000000008 0.39266999999999974 0.7845099999999993 -0.0068800000000000016 0.49641499999999955 -0.025141499999999976 -0.9751049999999994 -0.3651499999999999 -0.41965000000000047 -0.0690205 -0.9241699999999985 0.5809399999999989 0.6922500000000008 -0.3866300000000002 0.06077150000000002 0.21027950000000026 0.17747999999999975 -0.7321600000000003 0.3562100000000005 0.4309550000000006 -0.28737999999999997 0.36121500000000034 -1.124899999999998 -0.010118500000000022 0.03004650000000004 -0.054544499999999996 0.12223049999999992 0.21611500000000017 0.8219599999999989 -0.27358000000000016 -0.171405 0.46942500000000037 -0.4334999999999995 0.47558000000000056 0.2953050000000001 0.11964049999999997 -0.49266000000000054 -0.9341999999999989 -0.5584750000000007 0.9278649999999986 -0.2940600000000004 -0.510185 -0.8137749999999998 -0.017959999999999983 -0.003433500000000004 -0.19723800000000008 -0.33448999999999973 -0.4106549999999994 -0.49513999999999947 0.2561700000000005 -2.5457499999999986 -0.2960300000000004 0.27880000000000027 1.5438500000000022 0.8284999999999988 -1.3265999999999993 0.8626250000000008 -0.04639699999999993 -1.1350699999999994 -0.256015 -0.7377400000000006 0.3881699999999996 0.13102000000000008 -0.4020499999999994 1.2569000000000012 -0.1892835000000001 0.7715249999999989 -1.005865 0.03469899999999998 0.22406999999999974 -0.6404399999999987 0.3676150000000004 -0.09343699999999984 -0.9315550000000015 -0.03809900000000001 -0.007915000000000002 0.47413999999999923 -0.4251550000000001 -0.25625 -0.6693599999999994 0.019589000000000013 -0.393065 0.4735000000000006 -0.43136499999999967 0.02312850000000004 0.19089250000000021 -0.7723900000000009 0.22729 -0.13696700000000014 -0.5800100000000008 0.7660750000000005 -0.64687 0.029446000000000038 0.4940050000000006 -0.21798500000000018
9qh0b,0.8254249999999959 -0.49801499999999 0.4272699999999775 -0.7002600000000461 0.534694999999983 0.7751250000000312 0.3926699999999693 0.7845099999999674 -0.006879999999999939 0.496415000000036 -0.0251415000000006 -0.9751050000000798 -0.36515000000003617 -0.4196500000000168 -0.06902050000000322 -0.9241699999999452 0.5809399999999698 0.6922500000000343 -0.38662999999997905 0.060771499999992686 0.21027949999998957 0.17747999999997677 -0.7321600000000199 0.35620999999996905 0.43095500000000647 -0.28737999999998826 0.36121499999995993 -1.1248999999998748 -0.010118499999999248 0.030046499999998002 -0.054544499999999586 0.12223050000000055 0.2161149999999706 0.8219600000001107 -0.27358000000002203 -0.17140500000001818 0.4694249999999612 -0.43350000000004635 0.4755799999999848 0.2953050000000275 0.11964049999999167 -0.49265999999993176 -0.9341999999999931 -0.558474999999965 0.9278650000000116 -0.29405999999996363 -0.5101850000000516 -0.8137750000000341 -0.01796000000000128 -0.003433499999999886 -0.19723799999999125 -0.3344899999999731 -0.41065499999996996 -0.49513999999999275 0.2561700000000252 -2.5457499999998343 -0.29602999999997803 0.2788000000000278 1.5438500000000195 0.8285000000000252 -1.326600000000111 0.8626250000000599 -0.0463970000000058 -1.1350700000000324 -0.2560149999999995 -0.737740000000025 0.38816999999996027 0.13102000000000286 -0.4020499999999703 1.2569000000000878 -0.18928349999998947 0.7715250000000821 -1.0058650000000646 0.03469899999999844 0.22406999999998803 -0.6404400000000224 0.36761499999994685 -0.09343699999999532 -0.9315550000000458 -0.038098999999996906 -0.007914999999999586 0.4741399999999833 -0.42515499999995343 -0.2562499999999899 -0.6693599999999699 0.0195889999999996 -0.39306499999998545 0.4735000000000233 -0.43136499999996214 0.02312849999999877 0.19089250000001237 -0.77239000000006 0.22729000000001948 -0.1369670000000169 -0.5800100000000138 0.7660750000000006 -0.6468700000000288 0.029445999999998432 0.4940050000000134 -0.21798499999999882
9q5bp,0.8254249999999961 -0.49801500000000665 0.4272700000000065 -0.700259999999989 0.5346950000000054 0.7751250000000025 0.3926700000000062 0.7845099999999873 -0.0068799999999999565 0.49641500000000766 -0.025141500000000136 -0.9751049999999903 -0.36515000000000974 -0.41964999999999336 -0.06902049999999955 -0.9241700000000033 0.5809400000000084 0.6922499999999836 -0.38663000000000786 0.06077150000000095 0.21027950000000487 0.17748000000000216 -0.732160000000013 0.3562099999999941 0.43095499999999515 -0.2873800000000024 0.36121500000000145 -1.124900000000019 -0.010118500000000162 0.030046500000000285 -0.05454449999999912 0.12223050000000052 0.21611500000000167 0.8219599999999917 -0.2735800000000011 -0.1714049999999954 0.46942500000000104 -0.4334999999999934 0.475579999999991 0.2953050000000021 0.11964050000000186 -0.49266000000000065 -0.9342000000000104 -0.5584749999999984 0.9278649999999972 -0.29406000000000165 -0.5101849999999911 -0.8137749999999908 -0.017960000000000025 -0.0034334999999999596 -0.19723799999999883 -0.3344900000000011 -0.4106550000000064 -0.4951399999999948 0.2561699999999978 -2.545750000000055 -0.2960299999999962 0.27879999999999466 1.5438500000000168 0.8284999999999888 -1.3266000000000204 0.8626249999999863 -0.04639699999999935 -1.135070000000022 -0.2560149999999961 -0.737740000000003 0.38817000000000207 0.13102000000000336 -0.40204999999999086 1.256900000000006 -0.18928349999999627 0.7715249999999971 -1.005864999999984 0.03469900000000033 0.22407000000000457 -0.6404400000000097 0.36761500000000064 -0.0934369999999987 -0.9315550000000029 -0.03809900000000029 -0.007914999999999893 0.4741399999999906 -0.4251550000000052 -0.2562499999999978 -0.6693599999999911 0.019588999999999877 -0.39306499999999484 0.4735000000000013 -0.43136500000001227 0.02312849999999964 0.1908924999999969 -0.7723899999999818 0.22729000000000366 -0.1369669999999987 -0.5800100000000068 0.7660750000000006 -0.6468700000000033 0.02944600000000008 0.4940050000000052 -0.21798499999999887
9q5er,0.8254249999999959 -0.4980149999999889 0.4272700000000112 -0.7002600000000176 0.5346950000000341 0.7751249999999495 0.3926699999999812 0.7845099999999688 -0.006880000000000216 0.4964149999999976 -0.025141499999998415 -0.9751049999999873 -0.3651499999999956 -0.41965000000002034 -0.06902049999999611 -0.9241699999999795 0.5809400000000349 0.6922500000000072 -0.38662999999999115 0.06077149999999903 0.2102795000000084 0.1774800000000025 -0.7321600000000179 0.35621000000000763 0.43095500000001785 -0.28737999999999236 0.36121500000000945 -1.1248999999999623 -0.010118500000000528 0.03004649999999866 -0.05454450000000185 0.12223050000000055 0.2161149999999994 0.8219599999999908 -0.27358000000000376 -0.171404999999994 0.469425000000001 -0.4334999999999916 0.4755800000000166 0.2953049999999923 0.11964050000000234 -0.4926599999999824 -0.9341999999999858 -0.5584750000000243 0.9278650000000601 -0.29405999999998483 -0.5101850000000056 -0.8137750000000316 -0.01796000000000024 -0.0034334999999999075 -0.1972380000000123 -0.3344899999999882 -0.410655000000014 -0.4951399999999933 0.2561699999999975 -2.545750000000152 -0.29602999999998325 0.27880000000000654 1.5438500000000188 0.8285000000000309 -1.3265999999999791 0.8626249999999923 -0.0463969999999991 -1.1350699999999712 -0.25601500000000404 -0.7377400000000187 0.38816999999997565 0.13101999999999916 -0.40205000000000907 1.2568999999999741 -0.18928349999999142 0.7715250000000498 -1.0058650000000413 0.03469900000000205 0.22406999999999333 -0.6404399999999708 0.36761500000000064 -0.09343699999999629 -0.9315549999999653 -0.03809900000000157 -0.00791500000000027 0.474140000000015 -0.4251550000000092 -0.25625000000001197 -0.6693600000000302 0.019589000000001074 -0.3930649999999857 0.47349999999998377 -0.43136500000001643 0.023128499999999025 0.19089250000000585 -0.7723900000000298 0.22728999999999727 -0.13696700000000558 -0.5800099999999792 0.7660750000000006 -0.6468700000000214 0.029445999999999205 0.4940050000000111 -0.21798499999999882
9qh42,0.8254249999999959 -0.49801499999998644 0.4272700000000084 -0.7002600000000191 0.5346950000000348 0.775124999999948 0.3926699999999804 0.7845099999999685 -0.006880000000000181 0.4964149999999995 -0.025141499999998367 -0.9751049999999873 -0.3651499999999949 -0.419650000000021 -0.06902049999999604 -0.9241699999999742 0.5809400000000354 0.6922500000000086 -0.3866299999999906 0.060771499999998715 0.210279500000007 0.1774800000000025 -0.732160000000018 0.3562100000000083 0.4309550000000184 -0.28737999999999214 0.3612150000000096 -1.1248999999999578 -0.010118500000000535 0.03004649999999863 -0.05454450000000158 0.12223050000000055 0.21611499999999798 0.8219599999999955 -0.27358000000000465 -0.17140499999999398 0.469425000000001 -0.43349999999999433 0.4755800000000171 0.2953049999999921 0.11964050000000234 -0.4926599999999799 -0.93419999999999 -0.5584750000000248 0.9278650000000614 -0.2940599999999838 -0.5101850000000079 -0.8137750000000328 -0.01796000000000029 -0.0034334999999999062 -0.19723800000001268 -0.3344899999999874 -0.41065500000001187 -0.4951399999999933 0.2561699999999975 -2.5457500000001536 -0.296029999999983 0.2788000000000076 1.5438500000000188 0.8285000000000321 -1.3265999999999762 0.862624999999998 -0.0463969999999991 -1.1350699999999672 -0.2560150000000052 -0.737740000000019 0.38816999999997487 0.1310199999999986 -0.4020500000000097 1.256899999999971 -0.18928349999999133 0.7715250000000513 -1.0058650000000426 0.03469900000000208 0.22406999999999308 -0.6404399999999689 0.36761500000000064 -0.09343699999999625 -0.9315549999999693 -0.0380990000000016 -0.007915000000000278 0.4741400000000155 -0.42515500000000644 -0.25625000000001225 -0.6693600000000319 0.019589000000001137 -0.3930649999999855 0.47349999999998577 -0.4313650000000137 0.02312849999999901 0.19089250000000615 -0.7723900000000312 0.22728999999999838 -0.13696700000000614 -0.5800099999999772 0.7660750000000006 -0.6468700000000218 0.029445999999999042 0.4940050000000112 -0.21798499999999882
9q5f6,0.8254249999999959 -0.4980149999999859 0.42726999999997267 -0.7002600000000453 0.5346949999999878 0.7751250000000286 0.3926699999999665 0.7845099999999615 -0.006879999999999862 0.496415000000035 -0.02514150000000094 -0.9751050000000687 -0.36515000000003467 -0.4196500000000229 -0.06902050000000265 -0.9241699999999364 0.5809399999999741 0.6922500000000336 -0.3866299999999793 0.06077149999999286 0.2102794999999871 0.17747999999997774 -0.7321600000000198 0.3562099999999706 0.4309550000000124 -0.28737999999998837 0.3612149999999617 -1.124899999999877 -0.010118499999999309 0.03004649999999802 -0.05454449999999896 0.12223050000000055 0.21611499999997139 0.8219600000001074 -0.27358000000002153 -0.1714050000000172 0.46942499999996695 -0.4335000000000449 0.4755799999999902 0.29530500000002535 0.11964049999999309 -0.49265999999993315 -0.9342000000000025 -0.5584749999999695 0.9278650000000226 -0.2940599999999642 -0.5101850000000504 -0.8137750000000468 -0.017960000000001253 -0.0034334999999998867 -0.19723799999999186 -0.3344899999999735 -0.41065499999996496 -0.49513999999999275 0.25617000000002255 -2.5457499999998503 -0.29602999999997814 0.27880000000002725 1.5438500000000195 0.8285000000000377 -1.3266000000001046 0.8626250000000695 -0.04639700000000557 -1.1350700000000251 -0.2560150000000015 -0.7377400000000248 0.3881699999999601 0.13102000000000186 -0.40204999999996494 1.256900000000081 -0.18928349999998953 0.7715250000000812 -1.005865000000064 0.03469899999999873 0.22406999999998817 -0.6404400000000192 0.3676149999999487 -0.09343699999999534 -0.9315550000000435 -0.03809899999999717 -0.007914999999999665 0.47413999999998874 -0.42515499999995493 -0.2562499999999924 -0.6693599999999729 0.0195889999999997 -0.39306499999998207 0.47350000000002224 -0.43136499999996364 0.02312849999999878 0.19089250000001218 -0.7723900000000592 0.22729000000001887 -0.1369670000000166 -0.5800100000000102 0.7660750000000006 -0.6468700000000286 0.029445999999998165 0.49400500000001335 -0.21798499999999882
9q5f3,0.8254249999999957 -0.49801499999995513 0.42726999999997367 -0.700260000000037 0.5346950000000389 0.7751250000000004 0.39266999999997093 0.7845099999999637 -0.006879999999999734 0.4964150000000238 -0.025141500000000205 -0.9751049999999866 -0.36515000000001846 -0.41965000000002994 -0.06902049999999646 -0.9241699999999059 0.5809400000000211 0.6922500000000257 -0.38662999999998293 0.060771499999994705 0.2102794999999894 0.17747999999998795 -0.7321600000000192 0.35620999999998715 0.43095500000002585 -0.2873799999999896 0.3612149999999809 -1.1248999999999025 -0.010118499999999968 0.030046499999998214 -0.054544499999998115 0.12223050000000056 0.21611499999997977 0.8219600000000721 -0.2735800000000162 -0.17140500000000677 0.46942500000000104 -0.4335000000000289 0.4755800000000237 0.29530500000000187 0.11964050000000247 -0.49265999999994786 -0.934200000000044 -0.5584750000000186 0.9278650000000784 -0.2940599999999704 -0.510185000000037 -0.8137750000000483 -0.01796000000000095 -0.003433499999999893 -0.1972379999999988 -0.3344899999999779 -0.41065499999997535 -0.4951399999999929 0.25616999999999746 -2.5457500000000217 -0.2960299999999797 0.27880000000002103 1.5438500000000193 0.8285000000000474 -1.3266000000000333 0.8626250000000703 -0.04639700000000315 -1.135069999999947 -0.2560150000000198 -0.7377400000000229 0.38816999999996477 0.13101999999999156 -0.40204999999997787 1.2569000000000061 -0.18928349999999008 0.7715250000000717 -1.0058650000000573 0.0346990000000018 0.22406999999998972 -0.640439999999985 0.36761499999996844 -0.09343699999999562 -0.9315550000000201 -0.038099 -0.007915000000000377 0.4741400000000219 -0.4251549999999712 -0.25625000000001585 -0.6693600000000061 0.01958900000000079 -0.3930649999999832 0.47350000000001075 -0.4313649999999794 0.02312849999999885 0.1908925000000103 -0.7723900000000503 0.22729000000001243 -0.1369670000000133 -0.5800099999999719 0.7660750000000006 -0.6468700000000265 0.02944599999999695 0.4940050000000127 -0.2179849999999988
9q5c9,0.8254249999999957 -0.4980150000000228 0.42727000000001636 -0.7002599999999762 0.534694999999945 0.7751250000000522 0.39267000000002134 0.7845100000000764 -0.006880000000000556 0.4964150000000444 -0.02514149999999786 -0.9751050000001686 -0.3651500000000482 -0.41964999999996816 -0.06902050000000783 -0.9241700000000157 0.5809399999999347 0.6922500000000402 -0.3866299999999764 0.060771499999991305 0.21027950000000933 0.17747999999998948 -0.7321599999999278 0.3562099999999568 0.4309549999999586 -0.28737999999998737 0.3612149999999456 -1.1248999999998557 -0.010118499999999461 0.03004649999999786 -0.05454450000000462 0.12223050000000056 0.21611499999996434 0.821960000000137 -0.27358000000002597 -0.17140500000002598 0.46942499999991494 -0.4335000000000583 0.4755799999999414 0.29530500000004506 0.11964049999998037 -0.4926599999999207 -0.9341999999999188 -0.5584749999999284 0.9278649999999239 -0.2940599999999609 -0.5101850000000616 -0.8137749999999327 -0.017960000000001506 -0.0034334999999998815 -0.19723799999998606 -0.334489999999999 -0.4106550000000103 -0.4951399999999926 0.25617000000004636 -2.5457499999998587 -0.29602999999997687 0.27880000000003247 1.5438500000000197 0.8284999999999256 -1.326600000000164 0.8626249999999841 -0.046397000000007606 -1.1350700000000908 -0.2560149999999833 -0.7377399999999311 0.3881700000000127 0.1310200000000108 -0.40205000000001334 1.2569000000001436 -0.18928350000001518 0.7715250000000891 -1.0058650000000697 0.03469899999999615 0.22406999999998686 -0.640440000000048 0.36761499999997904 -0.09343699999999511 -0.9315550000000632 -0.0380989999999948 -0.00791499999999895 0.4741399999999397 -0.4251549999999413 -0.25624999999996995 -0.6693599999999451 0.019588999999998788 -0.39306500000003985 0.4735000000000319 -0.43136499999995037 0.023128500000001734 0.1908925000000138 -0.7723900000000665 0.2272900000000243 -0.13696700000001938 -0.5800100000000423 0.766074999999892 -0.6468699999999856 0.029446000000000593 0.49400500000001396 -0.2179849999999988
9q5f7,0.8254249999999957 -0.4980149999999759 0.4272699999999967 -0.7002600000000251 0.5346950000000372 0.77512499999996 0.39266999999997726 0.784509999999967 -0.00688000000000003 0.4964150000000077 -0.025141499999998984 -0.975104999999987 -0.3651499999999952 -0.41965000000002406 -0.06902049999999575 -0.9241699999999511 0.5809400000000378 0.6922500000000144 -0.38662999999998804 0.06077149999999736 0.21027950000000106 0.17748000000000252 -0.7321600000000184 0.3562100000000109 0.4309550000000209 -0.28737999999999125 0.3612150000000085 -1.1248999999999392 -0.010118500000000566 0.030046499999998488 -0.05454450000000041 0.12223050000000056 0.21611499999999184 0.8219600000000213 -0.27358000000000854 -0.17140499999999384 0.46942500000000104 -0.433500000000006 0.4755800000000193 0.29530499999999127 0.11964050000000238 -0.4926599999999691 -0.9342000000000082 -0.558475000000027 0.9278650000000671 -0.2940599999999793 -0.5101850000000177 -0.8137750000000381 -0.017960000000000514 -0.003433499999999902 -0.19723800000000877 -0.3344899999999842 -0.41065499999999955 -0.49513999999999314 0.2561699999999975 -2.545750000000162 -0.29602999999998186 0.27880000000001215 1.5438500000000188 0.8285000000000372 -1.326599999999964 0.8626250000000223 -0.046396999999999675 -1.1350699999999494 -0.2560150000000101 -0.7377400000000203 0.3881699999999715 0.13101999999999622 -0.40204999999999896 1.2568999999999582 -0.18928349999999092 0.7715250000000582 -1.0058650000000475 0.03469900000000223 0.22406999999999194 -0.6404399999999608 0.3676149999999969 -0.09343699999999604 -0.9315549999999865 -0.03809900000000171 -0.00791500000000031 0.47414000000001766 -0.42515499999999457 -0.25625000000001347 -0.6693600000000395 0.0195890000000014 -0.3930649999999848 0.4734999999999942 -0.43136500000000216 0.02312849999999896 0.19089250000000754 -0.7723900000000377 0.2272900000000031 -0.13696700000000855 -0.5800099999999684 0.7660750000000006 -0.6468700000000234 0.029445999999998338 0.4940050000000117 -0.2179849999999988
9qh09,0.8254249999999959 -0.4980150000000077 0.427270000000012 -0.7002599999999938 0.5346950000000243 0.7751249999999767 0.39266999999999386 0.7845099999999752 -0.006880000000000173 0.49641499999998845 -0.025141499999999227 -0.9751049999999883 -0.36515000000000636 -0.41965000000000846 -0.06902049999999729 -0.9241700000000035 0.5809400000000259 0.6922499999999845 -0.3866300000000014 0.06077150000000109 0.21027950000000786 0.17748000000000239 -0.7321600000000162 0.35620999999999636 0.430955000000008 -0.28737999999999575 0.3612150000000067 -1.1249000000000213 -0.010118500000000403 0.030046499999999216 -0.05454450000000119 0.12223050000000055 0.21611500000000178 0.8219599999999911 -0.2735799999999937 -0.17140499999999448 0.46942500000000104 -0.4334999999999887 0.47558000000000783 0.29530499999999565 0.11964050000000218 -0.4926600000000007 -0.9341999999999778 -0.5584750000000155 0.9278650000000376 -0.2940600000000017 -0.5101849999999865 -0.8137750000000109 -0.017959999999999508 -0.0034334999999999253 -0.19723800000000566 -0.33449000000000084 -0.41065500000001137 -0.4951399999999938 0.2561699999999976 -2.545750000000119 -0.29602999999998764 0.27879999999999283 1.543850000000018 0.8285000000000107 -1.3266000000000273 0.862624999999984 -0.04639699999999918 -1.1350700000000293 -0.2560149999999941 -0.7377400000000133 0.38816999999998913 0.13102000000000458 -0.40204999999999924 1.2569000000000252 -0.18928349999999308 0.7715250000000226 -1.005865000000022 0.03469900000000146 0.22406999999999783 -0.6404400000000031 0.36761500000000064 -0.09343699999999712 -0.9315549999999623 -0.03809900000000114 -0.007915000000000142 0.47414000000000656 -0.42515500000000994 -0.25625000000000714 -0.6693600000000003 0.01958900000000003 -0.39306499999998884 0.4734999999999804 -0.43136500000001815 0.023128499999999233 0.19089250000000035 -0.7723900000000042 0.22728999999999655 -0.13696699999999862 -0.5800100000000101 0.7660750000000006 -0.6468700000000152 0.02944600000000008 0.4940050000000091 -0.21798499999999882
9q5bd,0.8254249999999957 -0.4980149999999538 0.42726999999997217 -0.7002600000000377 0.5346950000000341 0.7751250000000031 0.3926699999999705 0.7845099999999635 -0.006879999999999715 0.49641500000002486 -0.025141500000000285 -0.9751049999999865 -0.36515000000002 -0.41965000000003033 -0.06902049999999703 -0.9241699999999029 0.5809400000000168 0.6922500000000265 -0.3866299999999826 0.06077149999999453 0.21027949999998863 0.17747999999998698 -0.7321600000000192 0.3562099999999856 0.4309550000000262 -0.2873799999999895 0.36121499999997914 -1.1248999999999003 -0.010118499999999907 0.030046499999998196 -0.05454449999999797 0.12223050000000056 0.216114999999979 0.8219600000000754 -0.2735800000000167 -0.17140500000000775 0.46942500000000104 -0.4335000000000304 0.47558000000002404 0.29530500000000404 0.11964050000000248 -0.4926599999999465 -0.9342000000000463 -0.558475000000014 0.9278650000000792 -0.2940599999999698 -0.5101850000000382 -0.813775000000049 -0.01796000000000098 -0.0034334999999998924 -0.19723799999999814 -0.33448999999997747 -0.4106549999999738 -0.49513999999999286 0.25616999999999746 -2.545750000000006 -0.29602999999997953 0.27880000000002164 1.5438500000000193 0.8285000000000481 -1.32660000000004 0.8626250000000734 -0.04639700000000338 -1.135069999999954 -0.2560150000000205 -0.7377400000000232 0.3881699999999643 0.13101999999999223 -0.4020499999999765 1.256900000000013 -0.18928349999999003 0.7715250000000726 -1.005865000000058 0.03469900000000151 0.22406999999998958 -0.6404399999999882 0.3676149999999666 -0.09343699999999559 -0.9315550000000223 -0.03809899999999974 -0.00791500000000038 0.47414000000002215 -0.4251549999999697 -0.256250000000016 -0.669360000000003 0.01958900000000069 -0.39306499999998307 0.47350000000001186 -0.43136499999997796 0.023128499999998844 0.19089250000001046 -0.7723900000000512 0.22729000000001304 -0.1369670000000136 -0.5800099999999755 0.7660750000000006 -0.6468700000000267 0.02944599999999686 0.4940050000000128 -0.2179849999999988
9q5cu,0.8254249999999957 -0.49801500000004356 0.42727000000004095 -0.7002599999999016 0.5346949999999825 0.7751250000000655 0.39267000000005425 0.7845100000001455 -0.006880000000000947 0.4964150000000184 -0.025141499999996125 -0.9751050000001777 -0.3651500000000559 -0.41964999999993735 -0.0690205000000015 -0.9241700000000604 0.5809399999999126 0.6922500000000439 -0.3866299999999747 0.06077149999999044 0.21027950000002185 0.17748000000000402 -0.732159999999853 0.35620999999994896 0.43095499999992837 -0.28738000000003133 0.36121499999993656 -1.1249000000000058 -0.010118500000000478 0.030046499999998862 -0.0545445000000078 0.12223049999999436 0.21611499999996037 0.8219600000001537 -0.27358000000002847 -0.1714050000000309 0.4694249999998926 -0.4335000000000658 0.47557999999992673 0.2953050000000561 0.1196404999999771 -0.4926599999999138 -0.9341999999998717 -0.5584749999999052 0.9278649999998685 -0.29406000000000476 -0.510185000000068 -0.8137749999998685 -0.01795999999999887 -0.0034334999999998785 -0.1972379999999828 -0.334490000000038 -0.41065500000003585 -0.49513999999999253 0.25617000000005974 -2.5457500000001234 -0.29602999999997615 0.27880000000003535 1.5438500000000197 0.8284999999998627 -1.3266000000001976 0.8626249999999361 -0.046397000000008744 -1.1350700000001277 -0.25601499999997307 -0.7377399999998575 0.3881700000000459 0.1310200000000158 -0.4020500000000406 1.256900000000179 -0.18928350000003305 0.7715250000000936 -1.0058649999999993 0.034698999999994706 0.22406999999998614 -0.6404400000000642 0.36761500000000713 -0.09343699999999497 -0.9315550000000673 -0.03809899999999346 -0.007914999999998548 0.47413999999992357 -0.4251549999999336 -0.25624999999995735 -0.6693599999999295 0.019588999999998274 -0.3930650000000743 0.4735000000000374 -0.4313649999999429 0.02312850000000402 0.19089250000001468 -0.7723900000000707 0.22729000000002736 -0.13696700000000317 -0.5800099999999679 0.7660749999998203 -0.6468699999999017 0.02944600000000196 0.49400499999998504 -0.2179849999999988
9q5fm,0.825424999999996 -0.4980150000000073 0.42727000000000986 -0.7002599999999817 0.5346950000000171 0.7751249999999965 0.3926700000000032 0.7845099999999798 -0.006880000000000063 0.4964149999999957 -0.025141499999999824 -0.9751049999999891 -0.365150000000014 -0.4196499999999998 -0.06902049999999815 -0.9241700000000034 0.5809400000000192 0.6922499999999746 -0.3866300000000089 0.06077150000000103 0.21027950000000672 0.1774800000000023 -0.732160000000015 0.35620999999998987 0.43095500000000075 -0.2873799999999983 0.3612150000000047 -1.1249000000000204 -0.010118500000000313 0.030046499999999622 -0.05454450000000015 0.12223050000000053 0.21611500000000172 0.8219599999999914 -0.2735799999999965 -0.1714049999999948 0.46942500000000104 -0.4334999999999905 0.4755800000000014 0.2953049999999981 0.11964050000000205 -0.4926600000000007 -0.9341999999999911 -0.558475000000009 0.927865000000021 -0.2940600000000017 -0.5101849999999882 -0.8137749999999958 -0.017959999999999705 -0.0034334999999999383 -0.1972380000000008 -0.33449000000000473 -0.4106550000000095 -0.4951399999999942 0.2561699999999977 -2.5457500000000945 -0.29602999999999086 0.2787999999999935 1.5438500000000175 0.8284999999999958 -1.3266000000000386 0.8626249999999849 -0.046396999999999244 -1.1350700000000267 -0.25601499999999483 -0.7377400000000094 0.388169999999999 0.1310200000000041 -0.402049999999992 1.2569000000000248 -0.18928349999999428 0.7715250000000026 -1.0058650000000076 0.03469900000000103 0.2240700000000011 -0.6404400000000103 0.36761500000000064 -0.09343699999999772 -0.9315549999999787 -0.03809900000000082 -0.007915000000000047 0.47414000000000034 -0.42515500000000817 -0.2562500000000036 -0.6693599999999893 0.01958899999999987 -0.3930649999999911 0.4734999999999885 -0.43136500000001593 0.02312849999999939 0.19089249999999633 -0.7723899999999856 0.22728999999999977 -0.13696699999999865 -0.5800100000000088 0.7660750000000006 -0.6468700000000107 0.02944600000000008 0.4940050000000076 -0.21798499999999885
9q5fe,0.825424999999996 -0.4980150000000074 0.42727000000001064 -0.7002599999999823 0.5346950000000197 0.7751249999999895 0.3926699999999999 0.7845099999999782 -0.006880000000000102 0.49641499999999317 -0.025141499999999616 -0.9751049999999888 -0.3651500000000115 -0.41965000000000285 -0.06902049999999785 -0.9241700000000034 0.5809400000000216 0.6922499999999737 -0.38663000000000625 0.060771500000001054 0.2102795000000071 0.17748000000000233 -0.7321600000000155 0.35620999999999103 0.4309550000000033 -0.2873799999999974 0.3612150000000054 -1.1249000000000209 -0.010118500000000344 0.03004649999999948 -0.054544500000000516 0.12223050000000053 0.21611500000000175 0.8219599999999913 -0.27357999999999555 -0.1714049999999947 0.46942500000000104 -0.4334999999999899 0.47558000000000367 0.29530499999999726 0.11964050000000209 -0.4926600000000007 -0.9341999999999865 -0.5584750000000113 0.9278650000000268 -0.2940600000000017 -0.5101849999999876 -0.8137750000000011 -0.017959999999999636 -0.003433499999999934 -0.19723800000000252 -0.3344900000000055 -0.41065500000001015 -0.49513999999999403 0.2561699999999976 -2.545750000000103 -0.29602999999998975 0.2787999999999933 1.5438500000000177 0.828500000000001 -1.3266000000000426 0.8626249999999845 -0.046396999999999224 -1.1350700000000276 -0.2560149999999946 -0.7377400000000107 0.3881699999999955 0.13102000000000427 -0.4020499999999946 1.2569000000000288 -0.18928349999999386 0.7715250000000097 -1.0058650000000127 0.03469900000000118 0.22406999999999994 -0.6404400000000104 0.36761500000000064 -0.09343699999999751 -0.9315549999999729 -0.03809900000000093 -0.007915000000000082 0.4741400000000025 -0.4251550000000088 -0.25625000000000486 -0.6693599999999889 0.01958899999999987 -0.39306499999999034 0.47349999999998565 -0.4313650000000167 0.023128499999999334 0.19089249999999774 -0.7723899999999921 0.22728999999999863 -0.13696699999999865 -0.5800100000000092 0.7660750000000006 -0.6468700000000123 0.02944600000000008 0.49400500000000813 -0.21798499999999885
9q5ce,0.8254249999999957 -0.49801500000000504 0.4272699999999954 -0.70026000000004 0.5346949999999656 0.7751250000000408 0.3926699999999932 0.7845100000000175 -0.006880000000000223 0.4964150000000399 -0.02514149999999934 -0.9751050000001206 -0.36515000000004166 -0.41964999999999447 -0.06902050000000534 -0.9241699999999776 0.5809399999999537 0.692250000000037 -0.3866299999999778 0.060771499999992054 0.21027949999999865 0.17747999999997705 -0.7321599999999917 0.35620999999996344 0.4309549999999845 -0.28737999999998787 0.3612149999999534 -1.1248999999998661 -0.010118499999999022 0.030046499999997936 -0.0545445000000019 0.12223050000000056 0.21611499999996772 0.8219600000001227 -0.27358000000002386 -0.17140500000002176 0.4694249999999399 -0.43350000000005184 0.47557999999996486 0.29530500000003557 0.11964049999998648 -0.4926599999999267 -0.934199999999959 -0.5584749999999482 0.9278649999999713 -0.2940599999999615 -0.5101850000000562 -0.8137749999999876 -0.017960000000001385 -0.0034334999999998837 -0.19723799999998887 -0.3344899999999716 -0.4106549999999885 -0.4951399999999927 0.2561700000000349 -2.5457499999997757 -0.2960299999999775 0.27880000000002997 1.5438500000000195 0.8284999999999796 -1.3266000000001354 0.8626250000000252 -0.04639700000000663 -1.135070000000059 -0.25601499999999205 -0.7377399999999941 0.3881699999999843 0.1310200000000065 -0.4020499999999901 1.2569000000001136 -0.1892834999999999 0.7715250000000853 -1.005865000000067 0.03469899999999739 0.2240699999999875 -0.6404400000000342 0.3676149999999551 -0.09343699999999522 -0.9315550000000538 -0.038098999999995935 -0.007914999999999294 0.4741399999999633 -0.4251549999999478 -0.2562499999999807 -0.6693599999999584 0.019588999999999225 -0.39306500000001043 0.4735000000000273 -0.43136499999995676 0.02312849999999978 0.190892500000013 -0.772390000000063 0.2272900000000217 -0.13696700000001805 -0.5800100000000269 0.7660749999999534 -0.6468700000000296 0.029445999999999424 0.4940050000000137 -0.2179849999999988
9q5c5,0.8254249999999957 -0.49801499999997656 0.4272699999999975 -0.7002600000000248 0.5346950000000371 0.7751249999999587 0.3926699999999775 0.784509999999967 -0.00688000000000004 0.49641500000000716 -0.025141499999998946 -0.9751049999999871 -0.3651499999999944 -0.41965000000002384 -0.06902049999999577 -0.9241699999999526 0.5809400000000375 0.692250000000014 -0.3866299999999882 0.06077149999999745 0.21027950000000145 0.17748000000000252 -0.7321600000000184 0.35621000000001096 0.43095500000002074 -0.2873799999999913 0.3612150000000094 -1.1248999999999405 -0.010118500000000565 0.030046499999998498 -0.05454450000000048 0.12223050000000056 0.21611499999999223 0.8219600000000197 -0.2735800000000083 -0.17140499999999387 0.46942500000000104 -0.43350000000000527 0.4755800000000192 0.2953049999999913 0.11964050000000238 -0.4926599999999698 -0.9342000000000071 -0.5584750000000269 0.9278650000000668 -0.29405999999997956 -0.510185000000017 -0.8137750000000378 -0.0179600000000005 -0.003433499999999902 -0.19723800000000907 -0.3344899999999844 -0.4106550000000003 -0.4951399999999932 0.2561699999999975 -2.5457500000001616 -0.2960299999999819 0.27880000000001187 1.5438500000000188 0.8285000000000369 -1.326599999999965 0.8626250000000207 -0.04639699999999956 -1.1350699999999505 -0.2560150000000098 -0.7377400000000202 0.3881699999999717 0.1310199999999964 -0.4020499999999997 1.2568999999999588 -0.18928349999999095 0.7715250000000577 -1.0058650000000473 0.03469900000000222 0.22406999999999203 -0.6404399999999613 0.3676149999999978 -0.09343699999999605 -0.9315549999999854 -0.0380990000000017 -0.007915000000000309 0.4741400000000175 -0.42515499999999534 -0.25625000000001336 -0.669360000000039 0.019589000000001383 -0.3930649999999848 0.47349999999999365 -0.4313650000000029 0.023128499999998962 0.19089250000000746 -0.7723900000000372 0.2272900000000028 -0.1369670000000084 -0.5800099999999689 0.7660750000000006 -0.6468700000000233 0.029445999999998383 0.4940050000000117 -0.2179849999999988
9q5cd,0.8254250000000047 -0.4980150000000528 0.42727000000005183 -0.7002599999998685 0.5346950000000175 0.7751250000000715 0.39267000000006885 0.7845100000001761 -0.006880000000000608 0.49641499999997163 -0.025141499999995355 -0.9751050000001026 -0.36515000000005926 -0.4196499999999237 -0.06902049999999726 -0.9241700000000801 0.5809399999999028 0.6922500000000456 -0.38662999999997394 0.06077149999999005 0.2102795000000274 0.17748000000001046 -0.7321599999998198 0.3562099999999455 0.43095499999991493 -0.2873800000000523 0.36121499999993256 -1.124900000000087 -0.010118500000000927 0.030046500000001992 -0.05454450000000922 0.12223049999998188 0.21611499999997102 0.8219600000001559 -0.2735800000000296 -0.1714050000000331 0.4694249999999316 -0.4335000000000691 0.4755799999999658 0.29530500000006105 0.11964049999998666 -0.49265999999991067 -0.9341999999998508 -0.5584749999998949 0.9278649999998438 -0.2940600000000242 -0.5101850000000707 -0.81377499999984 -0.017959999999997606 -0.003433499999999877 -0.19723799999998134 -0.3344900000000553 -0.4106550000000449 -0.49513999999999253 0.25617000000006573 -2.5457500000002407 -0.2960299999999758 0.2788000000000367 1.54385000000002 0.8284999999998347 -1.3266000000002125 0.8626249999999148 -0.04639700000000926 -1.1350700000001441 -0.2560149999999686 -0.7377399999998249 0.38817000000006063 0.13102000000001804 -0.4020500000000527 1.2569000000001946 -0.189283500000041 0.7715250000000955 -1.0058649999999039 0.03469899999999406 0.22407000000000585 -0.6404400000000713 0.36761500000001957 -0.09343699999999491 -0.9315549999999675 -0.03809899999999286 -0.00791499999999837 0.47413999999996276 -0.42515499999993017 -0.25624999999995174 -0.6693599999999225 0.019588999999998045 -0.3930650000000896 0.4735000000000398 -0.4313649999999636 0.023128500000005034 0.19089250000001506 -0.7723900000000726 0.22729000000000574 -0.13696699999999273 -0.580009999999934 0.7660749999997885 -0.6468699999998644 0.029446000000002567 0.4940049999999358 -0.21798500000001306
9q5fj,0.825424999999996 -0.4980150000000075 0.42727000000001075 -0.7002599999999833 0.5346950000000201 0.7751249999999884 0.3926699999999994 0.784509999999978 -0.006880000000000108 0.4964149999999927 -0.02514149999999958 -0.9751049999999888 -0.365150000000011 -0.41965000000000335 -0.0690204999999978 -0.9241700000000034 0.580940000000022 0.6922499999999746 -0.38663000000000586 0.060771500000001054 0.2102795000000072 0.17748000000000233 -0.7321600000000155 0.35620999999999153 0.43095500000000375 -0.28737999999999725 0.3612150000000055 -1.1249000000000209 -0.01011850000000035 0.030046499999999456 -0.05454450000000057 0.12223050000000053 0.21611500000000175 0.8219599999999913 -0.2735799999999954 -0.1714049999999947 0.46942500000000104 -0.4334999999999898 0.475580000000004 0.2953049999999971 0.1196405000000021 -0.4926600000000007 -0.9341999999999857 -0.5584750000000116 0.9278650000000278 -0.2940600000000017 -0.5101849999999875 -0.8137750000000019 -0.017959999999999626 -0.003433499999999933 -0.1972380000000028 -0.3344900000000056 -0.41065500000001026 -0.49513999999999403 0.2561699999999976 -2.5457500000001043 -0.2960299999999896 0.2787999999999932 1.5438500000000177 0.8285000000000019 -1.326600000000043 0.8626249999999845 -0.046396999999999224 -1.1350700000000278 -0.25601499999999455 -0.7377400000000109 0.38816999999999496 0.1310200000000043 -0.40204999999999497 1.2569000000000294 -0.18928349999999378 0.7715250000000108 -1.0058650000000136 0.03469900000000121 0.22406999999999974 -0.6404400000000104 0.36761500000000064 -0.09343699999999747 -0.931554999999972 -0.038099000000000945 -0.007915000000000087 0.4741400000000029 -0.4251550000000089 -0.25625000000000503 -0.6693599999999889 0.01958899999999987 -0.39306499999999023 0.47349999999998515 -0.4313650000000168 0.023128499999999323 0.19089249999999797 -0.7723899999999932 0.22728999999999847 -0.13696699999999865 -0.5800100000000094 0.7660750000000006 -0.6468700000000126 0.02944600000000008 0.4940050000000082 -0.21798499999999885
